#include "kiss_fftr.h"

#define SNDEV_SAMPLING_FREQ_HZ   40000

#define SNDEV_TIME_WEIGHTING_SLOW    1
#define SNDEV_TIME_WEIGHTING_FAST    2
#define SNDEV_TIME_WEIGHTING_IMPULSE 3

#define SNDEV_FREQ_WEIGHTING_FREQ   0
#define SNDEV_FREQ_WEIGHTING_A      1
#define SNDEV_FREQ_WEIGHTING_C      2
#define SNDEV_FREQ_WEIGHTING_Z      3

#define SNDEV_PERIOD_MS_SLOW      1000
#define SNDEV_PERIOD_MS_FAST      125
#define SNDEV_PERIOD_MS_IMPULSE   35

#define SNDEV_PERIOD_SAMPLES_SLOW    (SNDEV_PERIOD_MS_SLOW * SNDEV_SAMPLING_FREQ_HZ / 1000) // = 40000
#define SNDEV_PERIOD_SAMPLES_FAST    (SNDEV_PERIOD_MS_FAST * SNDEV_SAMPLING_FREQ_HZ / 1000) // = 5000
#define SNDEV_PERIOD_SAMPLES_IMPULSE (SNDEV_PERIOD_MS_IMPULSE * SNDEV_SAMPLING_FREQ_HZ / 1000) // = 1400

#define SNDEV_SAMPLES_BUFF_SIZE   5000
#define SNDEV_FFT_OUTPUT_SIZE     (SNDEV_SAMPLES_BUFF_SIZE / 2 + 1)

#define SNDEV_P_ZERO 0.00002

#define SNDEV_FREQ_BANDS 36

static int _freqW = SNDEV_FREQ_WEIGHTING_A;
static int _periodSampleSize;

static float _samplesBuff[SNDEV_SAMPLES_BUFF_SIZE];
static int _samplesBuffIdx;
static int _samplesBuffMax;
static float _samplesTimeSec;
static float _windowFun[SNDEV_SAMPLES_BUFF_SIZE];
static float _periodPower;
static float _periodRounds;
static int _periodPowerCnt;
static float _freqBandPow[SNDEV_FREQ_BANDS];
static float _refPZ2 = pow(SNDEV_P_ZERO, 2);
static float _refOnePa;
static kiss_fft_cpx _fftOut[SNDEV_FFT_OUTPUT_SIZE];
static kiss_fftr_cfg _fftCfg;

static float _lEqBand[SNDEV_FREQ_BANDS];
static float _lEqPeriodDb;

static float _weightingTable[SNDEV_FREQ_BANDS][4] = {
   // freq,    A,        C,       Z
    { 6.3,     -85.4,    -21.3,    0 },
    { 8,       -77.8,    -17.7,    0 },
    { 10,      -70.4,    -14.3,    0 },
    { 12.5,    -63.4,    -11.2,    0 },
    { 16,      -56.7,    -8.5,     0 },
    { 20,      -50.5,    -6.2,     0 },
    { 25,      -44.7,    -4.4,     0 },
    { 31.5,    -39.4,    -3,       0 },
    { 40,      -34.6,    -2,       0 },
    { 50,      -30.2,    -1.3,     0 },
    { 63,      -26.2,    -0.8,     0 },
    { 80,      -22.5,    -0.5,     0 },
    { 100,     -19.1,    -0.3,     0 },
    { 125,     -16.1,    -0.2,     0 },
    { 160,     -13.4,    -0.1,     0 },
    { 200,     -10.9,    0,        0 },
    { 250,     -8.6,     0,        0 },
    { 315,     -6.6,     0,        0 },
    { 400,     -4.8,     0,        0 },
    { 500,     -3.2,     0,        0 },
    { 630,     -1.9,     0,        0 },
    { 800,     -0.8,     0,        0 },
    { 1000,    0.0,      0,        0 },
    { 1250,    0.6,      0,        0 },
    { 1600,    1.0,      -0.1,     0 },
    { 2000,    1.2,      -0.2,     0 },
    { 2500,    1.3,      -0.3,     0 },
    { 3150,    1.2,      -0.5,     0 },
    { 4000,    1.0,      -0.8,     0 },
    { 5000,    0.5,      -1.3,     0 },
    { 6300,    -0.1,     -2,       0 },
    { 8000,    -1.1,     -3,       0 },
    { 10000,   -2.5,     -4.4,     0 },
    { 12500,   -4.3,     -6.2,     0 },
    { 16000,   -6.6,     -8.5,     0 },
    { 20000,   -9.3,     -11.2,    0 },
};

bool soundEvalSetMicSpecs(float sensitivityDb, int32_t sampleMax) {
  _refOnePa = sampleMax * pow(10, sensitivityDb / 20.0);
  return true;
}

bool soundEvalSetTimeWeighting(int tw) {
  float periodTimeMs;
  switch (tw) {
    case SNDEV_TIME_WEIGHTING_FAST:
      _periodSampleSize = SNDEV_PERIOD_SAMPLES_FAST;
      periodTimeMs = SNDEV_PERIOD_MS_FAST;
      break;
    case SNDEV_TIME_WEIGHTING_IMPULSE:
      _periodSampleSize = SNDEV_PERIOD_SAMPLES_IMPULSE;
      periodTimeMs = SNDEV_PERIOD_MS_IMPULSE;
      break;
    case SNDEV_TIME_WEIGHTING_SLOW:
      _periodSampleSize = SNDEV_PERIOD_SAMPLES_SLOW;
      periodTimeMs = SNDEV_PERIOD_MS_SLOW;
      break;
    default:
      return false;
  }
  _samplesBuffMax = min(_periodSampleSize, SNDEV_SAMPLES_BUFF_SIZE);
  _periodRounds = _periodSampleSize / _samplesBuffMax;
  _samplesTimeSec = periodTimeMs / _periodRounds / 1000.0;
  _samplesBuffIdx = 0;
  _periodPower = 0;
  _periodPowerCnt = 0;
  for (int i = 0; i < _samplesBuffMax; i++) {
    _windowFun[i] = (1.0 - cos(2.0 * M_PI * i / _samplesBuffMax)) * 0.5;
  }
  _fftCfg = kiss_fftr_alloc(_samplesBuffMax, false, NULL, NULL);
  if (!_fftCfg) {
    return false;
  }
  return true;
}

bool soundEvalSetFreqWeighting(int fw) {
  _freqW = fw;
  return true;
}

// TODO remove float yy[] = { -0.0004757077, 0.0031919985, 0.0000023785, 0.0067740772, 0.0024475160, 0.0087458855, 0.0046952344, 0.0069548460, 0.0051709423, 0.0012748966, 0.0047142627, 0.0032086482, 0.0065290877, 0.0057132491, 0.0057869838, 0.0063245334, 0.0032062696, 0.0043313182, 0.0053445753, 0.0036843559, 0.0054278243, 0.0061723068, 0.0050734221, 0.0081679001, 0.0082202284, 0.0128607564, 0.0122542288, 0.0109127332, 0.0137717370, 0.0133602498, 0.0174513347, 0.0170564987, 0.0204839725, 0.0176011827, 0.0204506721, 0.0183932371, 0.0180364549, 0.0198512804, 0.0192566458, 0.0202056821, 0.0181958172, 0.0177296251, 0.0164737552, 0.0167805869, 0.0139334770, 0.0135100977, 0.0128631350, 0.0118189566, 0.0128702708, 0.0133959278, 0.0167568028, 0.0153249223, 0.0171563961, 0.0172824599, 0.0135624250, 0.0126871234, 0.0133221932, 0.0090765022, 0.0132770007, 0.0069429530, 0.0116976509, 0.0048712464, 0.0078610694, 0.0043955389, 0.0021454415, 0.0048617320, -0.0003877017, 0.0037771189, -0.0013081960, 0.0013010604, -0.0014461513, -0.0007825391, -0.0032562190, -0.0060724081, -0.0062079849, -0.0077302493, -0.0059106676, -0.0062531773, -0.0058559612, -0.0078134984, -0.0071261008, -0.0088101057, -0.0097805494, -0.0078301476, -0.0093191126, -0.0053279256, -0.0088909762, -0.0043075327, -0.0075280736, -0.0039555090, -0.0065909293, -0.0058297971, -0.0028851670, -0.0073473048, -0.0030469075, -0.0054563666, -0.0035844571, -0.0082107140, -0.0042956402, -0.0050187157, -0.0059962948, -0.0027495902, -0.0040316223, -0.0024213518, -0.0039008027, -0.0054849093, -0.0059653739, -0.0075518591, -0.0083153695, -0.0062222560, -0.0046262569, -0.0065243305, -0.0057988763, -0.0067669414, -0.0047285343, -0.0062293918, -0.0051661851, -0.0044668950, -0.0057037347, -0.0024570301, -0.0044740303, -0.0004709506, 0.0000499493, -0.0020074863, 0.0019028307, 0.0003448880, 0.0016744910, 0.0020170005, 0.0016744910, 0.0043622390, 0.0006136629, 0.0043598604, 0.0025474145, 0.0058821253, 0.0048807603, 0.0077825771, 0.0090146605, 0.0102586355, 0.0106962863, 0.0096045379, 0.0120068612, 0.0120211327, 0.0119426409, 0.0130772032, 0.0138169285, 0.0142759867, 0.0159695055, 0.0143758850, 0.0165379774, 0.0156745669, 0.0142878797, 0.0108651631, 0.0129630333, 0.0096711367, 0.0091526154, 0.0121471947, 0.0098067131, 0.0103085851, 0.0070190663, 0.0060510011, 0.0054896665, 0.0010156358, 0.0045763077, 0.0002640178, 0.0012606253, -0.0000808703, 0.0006493410, 0.0009656865, 0.0048403256, 0.0021739840, 0.0048997886, 0.0022263117, 0.0011202915, 0.0029636587, 0.0005208999, 0.0023095608, -0.0032371907, 0.0001450908, -0.0057513057, -0.0064505958, -0.0049140602, -0.0064553530, -0.0025783356, -0.0074971528, -0.0016340557, -0.0098209847, -0.0043836460, -0.0089218970, -0.0071831858, -0.0077135996, -0.0112837851, -0.0050591510, -0.0085698729, -0.0092001865, -0.0076303510, -0.0135338828, -0.0110173896, -0.0095950235, -0.0128155639, -0.0091882935, -0.0136718377, -0.0106130382, -0.0104417829, -0.0120425392, -0.0081369793, -0.0099708326, -0.0069786315, -0.0080656232, -0.0072521633, -0.0035725646, -0.0060129450, -0.0022429617, -0.0046785846, -0.0043122899, -0.0054730168, -0.0069072749, -0.0063625900, -0.0036914914, -0.0043360754, -0.0022596114, -0.0040435148, 0.0000713561, -0.0047523193, -0.0006112843, -0.0009609294, -0.0012249472, 0.0009799578, -0.0025188720, 0.0011749979, -0.0023928096, 0.0003282383, -0.0013533883, 0.0015270215, 0.0015056147, 0.0018719096, 0.0018457457, 0.0013272243, 0.0026734769, -0.0011036418, 0.0029541445, -0.0024237304, 0.0004947360, 0.0007183186, 0.0033394678, 0.0069286819, 0.0055229659, 0.0063388045, 0.0040696790, 0.0038413394, 0.0009894719, 0.0000594635, 0.0039293454, 0.0045168442, 0.0045263581, 0.0040007015, 0.0057370341, 0.0058274190, 0.0050543938, 0.0073044910, 0.0066361218, 0.0048284326, 0.0046833418, 0.0043051541, 0.0059844023, 0.0054087960, 0.0056751925, 0.0102063073, 0.0079514533, 0.0071451291, 0.0059178034, 0.0063721039, 0.0071427505, 0.0068454333, 0.0068311621, 0.0085984161, 0.0056965994, 0.0081298435, 0.0071879425, 0.0103632910, 0.0100231599, 0.0084747318, 0.0120829744, 0.0081369793, 0.0109198689, 0.0104417829, 0.0105868736, 0.0120568108, 0.0104179978, 0.0099256402, 0.0120425392, 0.0115596959, 0.0150727974, 0.0144924335, 0.0140785677, 0.0119759403, 0.0103704268, 0.0135766966, 0.0082796915, 0.0126657160, 0.0101777650, 0.0124944616, 0.0110697169, 0.0099779684, 0.0107605075, 0.0085175456, 0.0109151118, 0.0106130382, 0.0147493156, 0.0117785214, 0.0139834266, 0.0115906168, 0.0130153615, 0.0106439590, 0.0155889401, 0.0180507265, 0.0171326119, 0.0182695519, 0.0168091301, 0.0175298266, 0.0147921294, 0.0161098391, 0.0151441535, 0.0150537686, 0.0160170775, 0.0152559448, 0.0147302877, 0.0146636888, 0.0130058471, 0.0126728518, 0.0150394971, 0.0138383359, 0.0151631813, 0.0169708710, 0.0157768447, 0.0181625187, 0.0139096919, 0.0157934949, 0.0178366583, 0.0160170775, 0.0186762828, 0.0178200081, 0.0191519894, 0.0162002239, 0.0159861557, 0.0106986649, 0.0114764469, 0.0092311073, 0.0065552513, 0.0086721508, 0.0068811113, 0.0049140602, 0.0042219055, 0.0015103718, 0.0005018716, 0.0023048036, 0.0004019730, 0.0049116816, 0.0020835996, 0.0026163920, 0.0018933165, -0.0029493875, -0.0010750993, -0.0084033757, -0.0062507987, -0.0082559064, -0.0055419942, -0.0063625900, -0.0068692183, -0.0012986819, -0.0061271144, -0.0019908366, -0.0090455813, -0.0075114239, -0.0106320661, -0.0119854547, -0.0082083354, -0.0124112125, -0.0081702787, -0.0101064090, -0.0090265526, -0.0087006930, -0.0103466418, -0.0068002408, -0.0074067684, -0.0010822349, -0.0036653276, -0.0006969117, -0.0032918970, -0.0026473131, -0.0027448332, -0.0017030335, -0.0013843093, 0.0006826405, 0.0021763626, 0.0003924588, -0.0000404352, -0.0011012632, -0.0002116899, -0.0020883565, 0.0001165484, -0.0013819308, -0.0010988847, -0.0007872962, 0.0011107774, 0.0024903296, 0.0012297042, 0.0035321293, -0.0026068781, 0.0013581454, -0.0028423532, -0.0011131559, -0.0016221631, -0.0007230756, 0.0002140684, 0.0002449894, -0.0000023785, 0.0024213518, 0.0008753021, 0.0036296493, 0.0054730168, 0.0061699282, 0.0076398649, 0.0055752937, 0.0025497931, 0.0029446303, 0.0012606253, 0.0044930587, 0.0016649768, 0.0028851670, -0.0004233798, -0.0016578411, -0.0061342502, -0.0047951331, -0.0062864767, -0.0063792397, -0.0088909762, -0.0075280736, -0.0076541360, -0.0100231599, -0.0080727590, -0.0143069075, -0.0083439127, -0.0137812505, -0.0106106596, -0.0093214912, -0.0126942592, -0.0117785214, -0.0142902583, -0.0112148076, -0.0156436469, -0.0134696625, -0.0119450195, -0.0127537223, -0.0102752857, -0.0117000295, -0.0101301949, -0.0136718377, -0.0129630333, -0.0138977990, -0.0139168277, -0.0115192607, -0.0125658177, -0.0091526154, -0.0119022056, -0.0092358645, -0.0093880901, -0.0090860166, -0.0046333927, -0.0078943688, -0.0007682678, -0.0036129996, -0.0015246430, 0.0001498479, 0.0004971145, 0.0041124928, 0.0044454881, 0.0088576768, 0.0066075795, 0.0041196281, 0.0023404816, 0.0003995944, -0.0000499493, -0.0010893706, 0.0002426109, -0.0015436714, -0.0000998986, -0.0034821799, -0.0006089058, -0.0051376428, -0.0048498395, -0.0059035318, -0.0073853615, -0.0061461427, -0.0113147069, -0.0089694681, -0.0129035702, -0.0105440598, -0.0109507898, -0.0121162739, -0.0109460335, -0.0082606636, -0.0086245798, -0.0079895100, -0.0086769080, -0.0078753401, -0.0093904687, -0.0102158217, -0.0110387960, -0.0090741236, -0.0085603595, -0.0071617789, -0.0096592437, -0.0097520072, -0.0086911786, -0.0119426409, -0.0089742253, -0.0107438574, -0.0067788339, -0.0121043809, -0.0105797378, -0.0134720411, -0.0105749816, -0.0110483104, -0.0095902663, -0.0079514533, -0.0096283229, -0.0067050993, -0.0083058560, -0.0095950235, -0.0093191126, -0.0121852513, -0.0118332282, -0.0095997807, -0.0100659737, -0.0071831858, -0.0065933079, -0.0061960923, -0.0057417913, -0.0097020576, -0.0077920915, -0.0088529196, -0.0059820237, -0.0055752937, -0.0033156823, -0.0004543008, -0.0004614364, 0.0014437727, -0.0008491382, -0.0011369413, 0.0008586523, 0.0028447318, 0.0038865316, 0.0050972076, 0.0043860245, 0.0054492312, 0.0043313182, 0.0051257499, 0.0024713012, 0.0043336968, 0.0038960457, 0.0067907269, 0.0039412379, 0.0029755514, 0.0014152302, 0.0006826405, 0.0001593621, -0.0029113309, 0.0015936206, 0.0006207985, 0.0000784918, 0.0015460498, -0.0013462526, -0.0009109802, -0.0025046009, -0.0036938700, -0.0037271695, -0.0050543938, -0.0001760118, -0.0024927082, -0.0027947824, -0.0037866330, -0.0069619813, -0.0070380946, -0.0052399198, -0.0044668950, -0.0006089058, -0.0041553061, 0.0007991889, -0.0045358725, -0.0035440221, -0.0041505494, -0.0041338997, -0.0022144192, -0.0021811195, -0.0045406297, -0.0006873976, -0.0014628010, 0.0011250486, -0.0025688214, 0.0029684159, 0.0026211492, 0.0018338530, 0.0039840518, -0.0003401310, 0.0038627461, 0.0012606253, 0.0055467514, 0.0024451374, 0.0068620830, 0.0041505494, 0.0057988763, 0.0075185597, 0.0061199791, 0.0062151207, 0.0055705365, 0.0048165401, 0.0029993367, 0.0026782341, 0.0044217026, 0.0062745837, 0.0074947742, 0.0051947278, 0.0060510011, 0.0090170382, 0.0035321293, 0.0071974569, 0.0052708406, 0.0064101606, 0.0066599073, 0.0034084453, 0.0057013561, 0.0019289945, 0.0026425561, -0.0000309210, 0.0035630504, 0.0045406297, 0.0041838489, 0.0081916861, 0.0044597592, 0.0030231222, 0.0010251499, 0.0012415970, 0.0036462992, 0.0049806591, 0.0046785846, 0.0037580905, 0.0065980651, 0.0053350613, 0.0070642587, 0.0055848081, 0.0071665356, 0.0042219055, 0.0052280272, 0.0047356696, 0.0069453316, 0.0069263033, 0.0091502368, 0.0134625267, 0.0138740139, 0.0151013397, 0.0158743653, 0.0145043265, 0.0142783653, 0.0141618168, 0.0157792233, 0.0139929410, 0.0152654583, 0.0143782636, 0.0169637352, 0.0143045289, 0.0137955220, 0.0151132317, 0.0142878797, 0.0170683898, 0.0136290239, 0.0137431938, 0.0115573173, 0.0091645075, 0.0091645075, 0.0101587372, 0.0113099497, 0.0091978079, 0.0128774066, 0.0100302957, 0.0131390458, 0.0105678458, 0.0115929954, 0.0125444112, 0.0123683987, 0.0141261388, 0.0128655136, 0.0173324086, 0.0156888384, 0.0180007778, 0.0158053860, 0.0178104937, 0.0180745125, 0.0170541201, 0.0163881294, 0.0122233080, 0.0113717914, 0.0065481160, 0.0080941655, 0.0081346007, 0.0092168357, 0.0082083354, 0.0088885976, 0.0078563122, 0.0088576768, 0.0093524121, 0.0065933079, 0.0101254378, 0.0092858132, 0.0082440134, 0.0088481624, 0.0080442168, 0.0067288848, 0.0053421971, 0.0038984243, 0.0079490747, 0.0067241276, 0.0078896116, 0.0087339925, 0.0107058007, 0.0094546899, 0.0081821717, 0.0097710351, 0.0072949771, 0.0068049980, 0.0053969035, 0.0079252897, 0.0095712384, 0.0078824759, 0.0080941655, 0.0102824206, 0.0084604602, 0.0082154712, 0.0085960375, 0.0103513990, 0.0114812041, 0.0088101057, 0.0124825686, 0.0134506337, 0.0155818043, 0.0177153535, 0.0154819060, 0.0165736545, 0.0132579720, 0.0162359029, 0.0160384830, 0.0145376259, 0.0155199626, 0.0112171862, 0.0129939541, 0.0119378837, 0.0123517495, 0.0120805958, 0.0109151118, 0.0136456741, 0.0122685004, 0.0104417829, 0.0093048420, 0.0086650150, 0.0062864767, 0.0041671991, 0.0035963499, 0.0038175539, 0.0043788888, 0.0030730714, 0.0063911323, 0.0043027760, 0.0044407309, 0.0031919985, 0.0036534348, 0.0026520703, 0.0021454415, 0.0062959907, 0.0043122899, 0.0068597044, 0.0058607184, 0.0053969035, 0.0061937138, 0.0050686649, 0.0058678538, 0.0048427037, 0.0026544486, 0.0039864304, -0.0020431643, 0.0006636122, -0.0074210395, -0.0060628941, -0.0092929490, -0.0057132491, -0.0060058092, -0.0081179515, -0.0057513057, -0.0076826788, -0.0072378921, -0.0085437093, -0.0073211407, -0.0053088972, -0.0046405280, -0.0025926067, -0.0036938700, -0.0034798016, -0.0034869371, -0.0047118845, -0.0022905325, -0.0029922011, -0.0027281833, -0.0046643135, -0.0062365271, -0.0059558600, -0.0108223492, -0.0098447697, -0.0107914284, -0.0108651631, -0.0129535198, -0.0128583778, -0.0145875756, -0.0108984625, -0.0105036246, -0.0107176937, -0.0106867729, -0.0141856018, -0.0121353026, -0.0153653575, -0.0132175367, -0.0119093414, -0.0112766502, -0.0116001312, -0.0136647020, -0.0116358092, -0.0166521464, -0.0156983528, -0.0144638913, -0.0189355426, -0.0147398021, -0.0182529036, -0.0147945080, -0.0167972371, -0.0160479974, -0.0152464304, -0.0173110012, -0.0120163755, -0.0148991635, -0.0147017455, -0.0150157120, -0.0140975965, -0.0160265900, -0.0149871698, -0.0096711367, -0.0111053949, -0.0065909293, -0.0111339381, -0.0064505958, -0.0114146052, -0.0107438574, -0.0085294386, -0.0116524594, -0.0070856656, -0.0093381414, -0.0033037898, -0.0048450823, -0.0027971610, -0.0058702324, -0.0074091465, -0.0049069244, -0.0090265526, -0.0067193708, -0.0069738743, -0.0034916941, -0.0003520237, -0.0043574823, -0.0015389143, -0.0043598604, -0.0008420026, -0.0005898775, -0.0020479215, -0.0003995944, -0.0036629490, -0.0008895733, 0.0010941277, 0.0004661935, 0.0058107688, 0.0060010520, 0.0076446221, 0.0043955389, 0.0082059568, 0.0057964977, 0.0085556023, 0.0066337432, 0.0076279724, 0.0064934096, 0.0101611158, 0.0105036246, 0.0079371827, 0.0127204228, 0.0068834899, 0.0094380397, 0.0074495818, 0.0066194721, 0.0047309124, 0.0036677059, 0.0020312716, 0.0008871948, -0.0004876003, -0.0044526234, -0.0007492396, -0.0037271695, -0.0028257035, -0.0025141148, -0.0009133587, -0.0061437641, -0.0081750359, -0.0063673467, -0.0081964433, -0.0080156736, -0.0118689062, -0.0067169922, -0.0103846984, -0.0118379854, -0.0104298899, -0.0110816099, -0.0090051461, -0.0111672375, -0.0082606636, -0.0089314114, -0.0092239715, -0.0091549940, -0.0129773049, -0.0096925432, -0.0128108067, -0.0103728054, -0.0112956781, -0.0088767046, -0.0082844486, -0.0100207813, -0.0061009508, -0.0093952259, -0.0128964344, -0.0133435996, -0.0142712295, -0.0133459782, -0.0159813985, -0.0085793873, -0.0114098480, -0.0067669414, -0.0091478582, -0.0089076255, -0.0087078288, -0.0096449731, -0.0081036799, -0.0104227550, -0.0103180986, -0.0071142078, -0.0111719938, -0.0075946725, -0.0067312634, -0.0102158217, -0.0071641575, -0.0064291889, -0.0071498859, -0.0075804014, -0.0087149646, -0.0067907269, -0.0093024634, -0.0077683059, -0.0108818123, -0.0107509932, -0.0102182003, -0.0099708326, -0.0076755430, -0.0052113775, -0.0062722056, -0.0026853697, -0.0062650698, -0.0055277231, -0.0046238783, -0.0075875372, -0.0049901735, -0.0031539418, -0.0015079933, 0.0001498479, -0.0025759570, -0.0017054119, -0.0053731180, -0.0023166963, -0.0045525222, -0.0045382511, -0.0019765652, -0.0034250950, -0.0063697253, -0.0019242375, -0.0067193708, -0.0067716986, -0.0061627924, -0.0083581833, -0.0052970047, -0.0072497847, -0.0017815252, -0.0033989311, -0.0035464005, -0.0008420026, -0.0063602114, -0.0007325898, -0.0064268103, -0.0010965061, -0.0014984792, -0.0020431643, 0.0037438192, -0.0007159400, -0.0017315758, -0.0032134051, -0.0046429066, -0.0035559146, -0.0057037347, -0.0064482172, -0.0025759570, -0.0069976598, -0.0047761048, -0.0087553989, -0.0089694681, -0.0094808536, -0.0118998270, -0.0077421418, -0.0098376339, -0.0075827800, -0.0080394596, -0.0085151671, -0.0064101606, -0.0070380946, -0.0060200803, -0.0040958431, -0.0029232234, -0.0009537939, 0.0011012632, -0.0022167976, 0.0000927630, -0.0026568272, -0.0027258049, -0.0011940262, 0.0016007563, 0.0005660921, 0.0034845585, 0.0003924588, 0.0040149726, 0.0014461513, 0.0014128517, 0.0032419476, 0.0020265146, 0.0070119309, 0.0051971059, 0.0070095523, 0.0078919902, 0.0082654208, 0.0089337900, 0.0079276683, 0.0075256950, 0.0069429530, 0.0040506506, 0.0035749429, -0.0004947360, -0.0010180144, 0.0018576384, 0.0015198860, 0.0007516181, 0.0001712548, 0.0003591593, 0.0027781327, 0.0023523744, 0.0030897213, 0.0035273721, 0.0015317786, 0.0016649768, 0.0023809168, 0.0008182172, 0.0031539418, 0.0016078919, 0.0033109253, 0.0030231222, 0.0025331432, 0.0029113309, 0.0016958978, 0.0029612801, -0.0000784918, 0.0002759105, -0.0001165484, 0.0015127503, 0.0017839037, 0.0042004986, 0.0023618885, 0.0033894170, 0.0069691171, 0.0047071273, 0.0117951715, 0.0069976598, 0.0148729999, 0.0077825771, 0.0124587836, 0.0106201731, 0.0108247278, 0.0167496670, 0.0095236674, 0.0139881838, 0.0080275666, 0.0098970979, 0.0079704821, 0.0072378921, 0.0094427969, 0.0053112758, 0.0077825771, 0.0047451840, 0.0069667385, 0.0070975581, 0.0071213436, 0.0089076255, 0.0063625900, 0.0077326279, 0.0018861808, 0.0044502453, 0.0007468610, 0.0039626448, 0.0016911407, 0.0041362778, 0.0008110816, 0.0037604689, 0.0002616392, 0.0015222644, -0.0012439755, -0.0007016688, -0.0008253528, -0.0043146685, -0.0018457457, -0.0044930587, -0.0035345079, -0.0040768147, -0.0058630970, -0.0044169454, -0.0036391634, -0.0035511577, -0.0045763077, -0.0052589481, -0.0062341490, -0.0078634471, -0.0085698729, -0.0104679465, -0.0088695688, -0.0114550404, -0.0061556571, -0.0046452852, -0.0039222096, -0.0036201351, -0.0058393115, -0.0071451291, -0.0089337900, -0.0068668402, -0.0090146605, -0.0042861258, -0.0027305619, -0.0014104731, 0.0002212041, 0.0009561724, 0.0005827419, 0.0002069328, 0.0011892691, 0.0000214068, 0.0004923574, 0.0014437727, 0.0012344613, 0.0037033842, 0.0023547530, 0.0012439755, 0.0033228179, 0.0001213054, 0.0030183650, 0.0034560161, 0.0036296493, 0.0043551037, 0.0017886608, 0.0068454333, 0.0023714027, 0.0065362230, 0.0030849641, 0.0044550020, 0.0046976130, 0.0056323786, 0.0095093958, 0.0073615760, 0.0104608117, 0.0077397637, 0.0098566627, 0.0060177017, 0.0070737726, 0.0057774694, 0.0057727122, 0.0042528263, 0.0048878961, 0.0045620366, 0.0064172964, 0.0045311153, 0.0047142627, 0.0066218507, 0.0088933548, 0.0085746301, 0.0116786230, 0.0098685557, 0.0121686021, 0.0103490204, 0.0096330801, 0.0131152598, 0.0113813058, 0.0157150030, 0.0127608581, 0.0174560919, 0.0135505330, 0.0185121633, 0.0161574110, 0.0164000206, 0.0158862565, 0.0133364638, 0.0124445120, 0.0110768527, 0.0127394507, 0.0126633374, 0.0140595399, 0.0162311457, 0.0120615680, 0.0157530587, 0.0105535742, 0.0119188549, 0.0113527635, 0.0087720491, 0.0140833249, 0.0109626828, 0.0118689062, 0.0114146052, 0.0108508915, 0.0113123283, 0.0112290792, 0.0105940094, 0.0116239162, 0.0131771024, 0.0133388424, 0.0122851506, 0.0133079216, 0.0095974021, 0.0107391002, 0.0097448714, 0.0124135911, 0.0117238155, 0.0097686565, 0.0083724549, 0.0051471568, 0.0065909293, 0.0016911407, 0.0048331898, 0.0009823364, -0.0002473680, -0.0004661935, -0.0023642671, -0.0022144192, -0.0070024165, -0.0035440221, -0.0063459403, -0.0049140602, -0.0071308576, -0.0072259991, -0.0108366208, -0.0106463376, -0.0129939541, -0.0128774066, -0.0110792313, -0.0129773049, -0.0084675960, -0.0145637896, -0.0134958262, -0.0145661682, -0.0175488554, -0.0138977990, -0.0188879725, -0.0148634855, -0.0151156103, -0.0119878333, -0.0117951715, -0.0144401062, -0.0159029067, -0.0126038743, -0.0143354498, -0.0111529659, -0.0119283693, -0.0111862654, -0.0084961383, -0.0114693111, -0.0066313646, -0.0102847992, -0.0054706382, -0.0076755430, -0.0071950783, -0.0054444741, -0.0063150190, -0.0051019648, -0.0050425013, -0.0052304058, -0.0046666921, -0.0041457922, -0.0016078919, -0.0035487791, -0.0006969117, -0.0004067300, -0.0024713012, 0.0018409886, -0.0018362316, 0.0018195817, -0.0003995944, 0.0000023785, -0.0012082974, -0.0000808703, 0.0015008576, 0.0029065737, 0.0046857204, 0.0057964977, 0.0057703340, 0.0050924504, 0.0042908830, 0.0052066203, 0.0039911871, 0.0033442248, 0.0023095608, 0.0020621927, -0.0001022771, -0.0010632066, -0.0009419012, 0.0005851204, -0.0003829447, 0.0015389143, 0.0001070342, -0.0032110268, -0.0040007015, -0.0068882466, -0.0057132491, -0.0042052558, -0.0059344531, -0.0066385004, -0.0087482641, -0.0109293833, -0.0075494805, -0.0111719938, -0.0071332362, -0.0089837387, -0.0065148165, -0.0068977610, -0.0093333842, -0.0044787875, -0.0077540348, -0.0058892607, -0.0032134051, -0.0048189186, -0.0010632066, -0.0053017619, -0.0003853232, -0.0014842079, 0.0021430629, 0.0005637135, 0.0021335487, 0.0018290959, 0.0030635572, 0.0012534896, 0.0030207436, 0.0056989775, 0.0006279341, -0.0011298057, -0.0004138657, -0.0014675581, 0.0002045543, 0.0020693282, 0.0017720110, 0.0031253994, -0.0016245416, -0.0002473680, -0.0049925516, -0.0024784368, -0.0027258049, 0.0000356781, 0.0019622941, 0.0021145204, 0.0020098649, 0.0013224672, 0.0036962484, 0.0045977146, 0.0057465485, 0.0059392098, 0.0095926449, 0.0059463456, 0.0086745294, 0.0087482641, 0.0102800420, 0.0133388424, 0.0096925432, 0.0126300380, 0.0094190119, 0.0090432027, 0.0088005913, 0.0101634944, 0.0108532701, 0.0084128901, 0.0099303974, 0.0069096535, 0.0085270600, 0.0074781245, 0.0062722056, 0.0067954836, 0.0070214448, 0.0062579340, 0.0064006466, 0.0069215465, 0.0086388513, 0.0097591421, 0.0083724549, 0.0125681963, 0.0114574190, 0.0158172790, 0.0189141370, 0.0188094806, 0.0178961214, 0.0188879725, 0.0137883862, 0.0142189022, 0.0118903127, 0.0153962784, 0.0165784117, 0.0139406128, 0.0215138793, 0.0159076639, 0.0206623618, 0.0178414155, 0.0168781076, 0.0146827167, 0.0134982048, 0.0182386320, 0.0161930881, 0.0194897428, 0.0171254762, 0.0204911064, 0.0206647404, 0.0192185901, 0.0233144313, 0.0218492523, 0.0241944920, 0.0239138231, 0.0219087154, 0.0193137303, 0.0205386784, 0.0158981495, 0.0187761802, 0.0172705669, 0.0202794168, 0.0219206084, 0.0198631734, 0.0240660496, 0.0182362534, 0.0188570507, 0.0163001232, 0.0148825143, 0.0181006771, 0.0132127805, 0.0177058391, 0.0158006288, 0.0182624161, 0.0171159618, 0.0189807359, 0.0196039118, 0.0209929794, 0.0214829575, 0.0185811408, 0.0203032028, 0.0178770944, 0.0165498685, 0.0167901013, 0.0159457214, 0.0179888848, 0.0139548844, 0.0179151502, 0.0148064010, 0.0123731559, 0.0136599457, 0.0100493245, 0.0129725477, 0.0098709334, 0.0143687502, 0.0133269504, 0.0140999751, 0.0135957245, 0.0126680946, 0.0125824679, 0.0087149646, 0.0083843470, 0.0062840981, 0.0077183568, 0.0080251880, 0.0092977062, 0.0084985169, 0.0091026658, 0.0077088424, 0.0109460335, 0.0096307015, 0.0098828264, 0.0123446137, 0.0100136464, 0.0110340388, 0.0107914284, 0.0100659737, 0.0145257330, 0.0124445120, 0.0143330712, 0.0142070092, 0.0122589860, 0.0143925352, 0.0121162739, 0.0163001232, 0.0162882302, 0.0166687965, 0.0186310895, 0.0173966289, 0.0151393963, 0.0165118128, 0.0167758297, 0.0172515381, 0.0185954124, 0.0157744661, 0.0167639386, 0.0148706213, 0.0169256777, 0.0169565994, 0.0174323078, 0.0181601401, 0.0161550324, 0.0181434900, 0.0165474899, 0.0192732960, 0.0193494093, 0.0191258267, 0.0193280019, 0.0155675327, 0.0178985000, 0.0142403087, 0.0187072027, 0.0148801357, 0.0144139417, 0.0137170302, 0.0106059024, 0.0118498774, 0.0126895020, 0.0158838779, 0.0141047323, 0.0142403087, 0.0118046850, 0.0125705749, 0.0099256402, 0.0118474988, 0.0082035782, 0.0104179978, 0.0079371827, 0.0070928009, 0.0069191679, 0.0031230208, 0.0066099577, 0.0009228729, 0.0035416435, 0.0013962020, 0.0034583947, 0.0024927082, 0.0017648754, 0.0020074863, -0.0008848162, -0.0023832954, -0.0034988299, -0.0030159866, -0.0030588002, -0.0009633080, 0.0021692270, 0.0020740854, 0.0066004437, 0.0026330419, 0.0069286819, 0.0021145204, 0.0070404732, 0.0058345543, 0.0061247363, 0.0083795907, 0.0028804098, 0.0065457374, 0.0017791466, 0.0044074315, 0.0017291973, 0.0032776257, 0.0058583398, 0.0041267639, 0.0054801521, 0.0045406297, 0.0046238783, 0.0050115800, 0.0043336968, 0.0048783822, 0.0074210395, 0.0046405280, 0.0046833418, 0.0053945249, 0.0012439755, 0.0014271230, 0.0010774778, -0.0021026279, 0.0024403802, -0.0018956950, 0.0014390156, -0.0031063710, -0.0021977695, -0.0051899706, -0.0066836923, -0.0047451840, -0.0073829829, -0.0024118379, -0.0045882002, -0.0030207436, -0.0013890663, -0.0038246894, -0.0031563202, -0.0073068696, -0.0035487791, -0.0021597128, -0.0035035869, -0.0018362316, -0.0003425095, -0.0000927630, 0.0012297042, -0.0017220617, -0.0016673553, -0.0020954923, -0.0034132025, -0.0036748417, -0.0031301563, -0.0020074863, -0.0033775244, -0.0057180058, -0.0058654752, -0.0083034774, -0.0095997807, -0.0084937606, -0.0098043345, -0.0078396620, -0.0096735153, -0.0064815166, -0.0082035782, -0.0100945160, -0.0114169838, -0.0137764933, -0.0101087876, -0.0124231055, -0.0101706292, -0.0105535742, -0.0115644531, -0.0133673847, -0.0131771024, -0.0136432955, -0.0157340299, -0.0146803381, -0.0183551796, -0.0133245718, -0.0193946008, -0.0131485593, -0.0193089731, -0.0164309423, -0.0158743653, -0.0175559912, -0.0163524505, -0.0162787158, -0.0170446057, -0.0190330632, -0.0192875676, -0.0200724844, -0.0201414619, -0.0256477781, -0.0220656991, -0.0243229326, -0.0239804219, -0.0241564345, -0.0263042543, -0.0260878075, -0.0260997005, -0.0273698401, -0.0253195390, -0.0265421085, -0.0254123025, -0.0290942807, -0.0240089651, -0.0276742931, -0.0243966673, -0.0250840653, -0.0251958556, -0.0221013781, -0.0234048162, -0.0232716184, -0.0217160545, -0.0234809294, -0.0207598824, -0.0230504144, -0.0216898900, -0.0226056278, -0.0240660496, -0.0239043105, -0.0244204532, -0.0212593749, -0.0214377660, -0.0221537054, -0.0241350271, -0.0250388719, -0.0295105241, -0.0277099703, -0.0260235872, -0.0237068906, -0.0216803756, -0.0210024938, -0.0201604906, -0.0182100888, -0.0176868103, -0.0161407609, -0.0183932371, -0.0164142922, -0.0136765949, -0.0108247278, -0.0079348041, -0.0056442712, 0.0005708492, -0.0022762611, -0.0009966076, -0.0042742332, -0.0021930123, -0.0026044995, 0.0003567807, 0.0059962948, 0.0045477650, 0.0056014578, 0.0043884031, 0.0048117829, 0.0045501436, 0.0036677059, 0.0077754417, 0.0073639546, 0.0083415341, 0.0053207902, 0.0080014030, 0.0070262020, 0.0035559146, 0.0023285889, 0.0011393199, 0.0038437177, -0.0005351711, 0.0021977695, 0.0026853697, 0.0011916477, -0.0031634560, -0.0031158852, -0.0028280821, -0.0066860709, -0.0014509084, -0.0067740772, -0.0014842079, -0.0043503465, -0.0032681115, -0.0074567175, -0.0084818676, -0.0093143554, -0.0116405664, -0.0086388513, -0.0112338364, -0.0111696161, -0.0137764933, -0.0151156103, -0.0168376733, -0.0145851970, -0.0165474899, -0.0150442543, -0.0160384830, -0.0157982521, -0.0163453147, -0.0161716826, -0.0151798315, -0.0151964808, -0.0138811497, -0.0164380781, -0.0133150574, -0.0146755809, -0.0154557414, -0.0138002792, -0.0169684924, -0.0127132870, -0.0131913731, -0.0108485129, -0.0093761981, -0.0076184580, -0.0069833882, -0.0067526703, -0.0049402239, -0.0044716517, -0.0035820787, -0.0021073848, -0.0019385087, -0.0014556654, 0.0000380566, 0.0007563751, 0.0046857204, 0.0036153782, 0.0058535826, 0.0058916393, 0.0025164934, 0.0055396156, 0.0016982764, 0.0023547530, -0.0012986819, -0.0026615844, -0.0045287367, -0.0064957882, -0.0075138025, -0.0091692647, -0.0130391465, -0.0108699203, -0.0133816563, -0.0121709807, -0.0126395524, -0.0146874739, -0.0151798315, -0.0146732023, -0.0130367680, -0.0168091301, -0.0137051372, -0.0148729999, -0.0102919349, -0.0134482551, -0.0131818587, -0.0147207733, -0.0160598904, -0.0149657624, -0.0158077646, -0.0124326199, -0.0143639930, -0.0127465865, -0.0143473428, -0.0159290712, -0.0125586819, -0.0159052853, -0.0101825222, -0.0167044736, -0.0118831769, -0.0168923791, -0.0155080697, -0.0166164692, -0.0163358003, -0.0150680402, -0.0149919270, -0.0126014957, -0.0142783653, -0.0102205789, -0.0106748799, -0.0088600554, -0.0090812594, -0.0090384455, -0.0109484121, -0.0091835363, -0.0074923956, -0.0102562569, -0.0086792866, -0.0085365735, -0.0073449262, -0.0058464468, -0.0084152687, -0.0067336420, -0.0047665909, -0.0079157753, -0.0089480607, -0.0102134431, -0.0068953824, -0.0084675960, -0.0041743345, -0.0047475626, -0.0013177102, -0.0034869371, -0.0026663414, 0.0001926616, -0.0007754035, 0.0002545036, -0.0004186227, 0.0007421040, -0.0007801605, -0.0004614364, -0.0012415970, -0.0028423532, -0.0021192776, -0.0039650234, 0.0005256570, 0.0017767681, 0.0066670426, 0.0065219519, 0.0072307563, 0.0067835911, 0.0035749429, 0.0066979639, 0.0047190199, 0.0058321757, 0.0071094511, 0.0055657797, 0.0081797931, 0.0061485213, 0.0061437641, 0.0078301476, 0.0088457838, 0.0104465401, 0.0084985169, 0.0090527162, 0.0085746301, 0.0070262020, 0.0071094511, 0.0043646176, 0.0063863751, 0.0049592522, 0.0059796451, 0.0062817195, 0.0066289860, 0.0053659822, 0.0044550020, 0.0061390074, 0.0051233713, 0.0059273173, 0.0068121338, 0.0089670895, 0.0081464937, 0.0071879425, 0.0110625811, 0.0080037815, 0.0125372754, 0.0103846984, 0.0148706213, 0.0124897044, 0.0141047323, 0.0125111109, 0.0100398101, 0.0131794801, 0.0065837940, 0.0119426409, 0.0065885512, 0.0075399661, 0.0069286819, 0.0077373851, 0.0064577316, 0.0061223577, 0.0055871862, 0.0070285806, 0.0026639628, 0.0057489271, 0.0036605704, 0.0001736333, 0.0024427588, -0.0033537389, -0.0011892691, -0.0052993833, -0.0039507519, -0.0066099577, -0.0085437093, -0.0083272625, -0.0093214912, -0.0069976598, -0.0065861726, -0.0051186145, -0.0033561175, -0.0069405749, -0.0030088509, -0.0045572794, -0.0041005998, -0.0021383059, -0.0016935193, -0.0008277313, 0.0000737347, -0.0002949387, 0.0003139671, 0.0000832488, 0.0024927082, 0.0003282383, 0.0007968103, 0.0008110816, 0.0024665443, 0.0008776806, 0.0041338997, -0.0011060203, 0.0012082974, -0.0050306083, -0.0011488340, -0.0026853697, -0.0001902831, 0.0016150274, -0.0016174060, 0.0016935193, -0.0025664428, 0.0007183186, -0.0009252514, 0.0010441783, 0.0049378453, 0.0040458934, 0.0067193708, 0.0063863751, 0.0065386016, 0.0086198226, 0.0069667385, 0.0089742253, 0.0077302493, 0.0065695229, 0.0079466961, 0.0065029236, 0.0056799492, 0.0058821253, 0.0065790368, 0.0041743345, 0.0042004986, 0.0034084453, 0.0057441699, 0.0043479679, 0.0036177568, 0.0026496917, 0.0036914914, 0.0006731263, 0.0015555640, -0.0021953909, -0.0007777820, -0.0048141615, -0.0059629953, -0.0056965994, -0.0093405200, -0.0063055051, -0.0098162275, -0.0081845503, -0.0090931514, -0.0133673847, -0.0091312081, -0.0159790199, -0.0109769544, -0.0111149093, -0.0130581753, -0.0141332746, -0.0163334217, -0.0154914195, -0.0181767903, -0.0169994123, -0.0174346864, -0.0191329625, -0.0194945000, -0.0225104857, -0.0232502110, -0.0212022904, -0.0210215207, -0.0183765870, -0.0205077566, -0.0198988505, -0.0202080607, -0.0204031020, -0.0161835738, -0.0152963800, -0.0147255305, -0.0137883862, -0.0148967849, -0.0172206163, -0.0183646940, -0.0132698650, -0.0158862565, -0.0139001776, -0.0155104483, -0.0138026578, -0.0132865151, -0.0131128812, -0.0128393499, -0.0129963327, -0.0092168357, -0.0102514997, -0.0065076808, -0.0116453236, -0.0073544402, -0.0122042801, -0.0104941111, -0.0120663242, -0.0120829744, -0.0132270511, -0.0119164763, -0.0095046386, -0.0095974021, -0.0099470466, -0.0092739211, -0.0102538783, -0.0108841909, -0.0079252897, -0.0118451202, -0.0087910779, -0.0096616223, -0.0081797931, -0.0074805031, -0.0060058092, -0.0057893624, -0.0075566159, -0.0048712464, -0.0097234640, -0.0069191679, -0.0078396620, -0.0070880442, -0.0057941191, -0.0097567644, -0.0048355684, -0.0110816099, -0.0076351077, -0.0097282212, -0.0042647193, -0.0045882002, -0.0057465485, -0.0053445753, -0.0074876384, -0.0073258979, -0.0109103555, -0.0048593539, -0.0056323786, -0.0016340557, -0.0047737262, 0.0003448880, 0.0000975201, -0.0005827419, 0.0030159866, -0.0018719096, 0.0013557668, -0.0042219055, -0.0011464554, -0.0003567807, -0.0007111829, 0.0016483270, -0.0030469075, 0.0003520237, 0.0007682678, -0.0000856274, 0.0020788424, 0.0015555640, 0.0028851670, 0.0000023785, 0.0020502999, -0.0019860794, -0.0017862823, -0.0013652809, -0.0054991804, 0.0003234812, -0.0033061681, -0.0029755514, -0.0019480229, -0.0033251964, -0.0020526785, -0.0049283314, -0.0051733209, -0.0072283777, -0.0061960923, -0.0071046939, -0.0054635024, -0.0061104647, -0.0070999367, -0.0097853066, -0.0093357628, -0.0088291345, -0.0092810560, -0.0044026743, -0.0057132491, -0.0040696790, -0.0086126868, -0.0092667853, -0.0098495269, -0.0098400125, -0.0066266079, -0.0066527715, -0.0043860245, -0.0064720027, -0.0070499876, -0.0079348041, -0.0058773682, -0.0093428986, -0.0055253445, -0.0101468442, -0.0072283777, -0.0073639546, -0.0085627381, -0.0096021593, -0.0108366208, -0.0109317619, -0.0114169838, -0.0115049900, -0.0114835827, -0.0119640473, -0.0127418293, -0.0126680946, -0.0121662235, -0.0120258899, -0.0115049900, -0.0125182467, -0.0100421887, -0.0080798948, -0.0110316603, -0.0092334859, -0.0098756906, -0.0075233164, -0.0096735153, -0.0085556023, -0.0102800420, -0.0096806511, -0.0102229575, -0.0102824206, -0.0079942672, -0.0088814618, -0.0073948754, -0.0080965441, -0.0073568188, -0.0088457838, -0.0026925053, -0.0054087960, -0.0015793494, -0.0020479215, 0.0010965061, 0.0035606718, -0.0003900803, 0.0047047487, 0.0004947360, 0.0040673004, 0.0005708492, 0.0026187706, 0.0018409886, -0.0010370427, 0.0001498479, -0.0036462992, -0.0029898225, -0.0036795987, -0.0033680103, -0.0026972624, -0.0026877483, -0.0058297971, -0.0020479215, -0.0063269120, -0.0047975117, -0.0062056063, -0.0045715505, -0.0019884580, -0.0034845585, -0.0024498943, -0.0043765106, -0.0016388128, -0.0029803084, 0.0002497465, 0.0012059190, 0.0020360288, 0.0017149261, 0.0019194804, 0.0009109802, -0.0008919518, 0.0011440769, -0.0024950868, -0.0021644698, -0.0038770174, 0.0000927630, -0.0017458471, -0.0009062231, -0.0017506041, -0.0007254542, -0.0027876468, -0.0029374948, -0.0008039459, -0.0027424546, -0.0051756995, -0.0031967554, -0.0023999452, -0.0033251964, -0.0009918505, -0.0003068314, 0.0010703423, 0.0022762611, 0.0004067300, 0.0024879510, 0.0028970595, 0.0045572794, 0.0029351162, 0.0052304058, 0.0036986270, 0.0032181623, 0.0036819773, 0.0043979171, 0.0073948754, 0.0085912803, 0.0065409802, 0.0100778667, 0.0076351077, 0.0071332362, 0.0062507987, 0.0069072749, 0.0110602025, 0.0086888000, 0.0131247742, 0.0095569668, 0.0106796371, 0.0123945633, 0.0088885976, 0.0116619729, 0.0131604522, 0.0094879894, 0.0103537776, 0.0093690623, 0.0103062065, 0.0069881454, 0.0097900638, 0.0076113227, 0.0100778667, 0.0070380946, 0.0071403719, 0.0074543389, 0.0044145673, 0.0062722056, 0.0048902747, 0.0032205407, 0.0035154796, 0.0018933165, -0.0010275285, -0.0014961006, -0.0009752007, -0.0023499958, -0.0003900803, -0.0029993367, -0.0047951331, -0.0028138107, -0.0062222560, -0.0049521169, -0.0043693748, -0.0033204395, -0.0022524758, -0.0035178582, -0.0031420491, -0.0029279806, -0.0036201351, -0.0055253445, -0.0065790368, -0.0072997338, -0.0071617789, -0.0039816732, -0.0040149726, -0.0030564216, -0.0033180609, -0.0019408872, -0.0040934645, -0.0036510562, -0.0014152302, -0.0032181623, -0.0011298057, -0.0031135066, -0.0001760118, -0.0039602662, -0.0018362316, -0.0012082974, -0.0008681664, -0.0017054119, -0.0025474145, -0.0022263117, -0.0027043980, -0.0022691255, -0.0021906337, -0.0000975201, -0.0039126957, -0.0036558134, -0.0063411831, -0.0040102154, -0.0047356696, -0.0035511577, -0.0015008576, -0.0037961472, -0.0003044529, -0.0002545036, 0.0018219603, 0.0008776806, 0.0018053106, 0.0027043980, -0.0010180144, 0.0027900254, -0.0016530841, 0.0027424546, -0.0012630038, -0.0006969117, 0.0009561724, -0.0046571777, -0.0024427588, -0.0051756995, -0.0061556571, -0.0085413307, -0.0115026115, -0.0091169374, -0.0122803934, -0.0100635951, -0.0122518502, -0.0093143554, -0.0093857124, -0.0110316603, -0.0128155639, -0.0144234560, -0.0148087796, -0.0086531220, -0.0150799323, -0.0085341949, -0.0141332746, -0.0156674311, -0.0098043345, -0.0146898525, -0.0085936589, -0.0106748799, -0.0086816642, -0.0076089441, -0.0112718930, -0.0057988763, -0.0075233164, -0.0039935657, -0.0054064174, -0.0087125860, -0.0063483184, -0.0079324255, -0.0034036883, -0.0059130462, -0.0005732277, -0.0007563751, -0.0001308196, 0.0000832488, -0.0027733757, -0.0008372455, -0.0017339544, -0.0006755049, 0.0026473131, 0.0031563202, 0.0035844571, 0.0046238783, 0.0040435148, 0.0032229193, 0.0018861808, -0.0004566794, 0.0003900803, 0.0027828899, 0.0014128517, 0.0010893706, 0.0008467596, 0.0003829447, -0.0013676595, 0.0036296493, 0.0001141698, 0.0029327376, 0.0023523744, 0.0018838024, 0.0017696325, -0.0005185214, 0.0004661935, 0.0004661935, 0.0005446853, 0.0012915463, 0.0019313730, 0.0021739840, 0.0019194804, 0.0029184665, -0.0006659907, 0.0024165949, -0.0004733291, 0.0025474145, 0.0005351711, 0.0021002493, 0.0029612801, 0.0007302113, 0.0012582467, 0.0000285425, 0.0015317786, -0.0013224672, -0.0000737347, -0.0041886060, -0.0044930587, -0.0074162823, -0.0105583314, -0.0145233544, -0.0128964344, -0.0146375243, -0.0131128812, -0.0133983064, -0.0144781629, -0.0158482008, -0.0164380781, -0.0170113053, -0.0152274016, -0.0179294217, -0.0152488090, -0.0149919270, -0.0127228014, -0.0173110012, -0.0141285174, -0.0181910601, -0.0158434436, -0.0143711278, -0.0173014868, -0.0120425392, -0.0158886351, -0.0119093414, -0.0138193071, -0.0111815082, -0.0131675880, -0.0143402070, -0.0149277057, -0.0160694048, -0.0154224420, -0.0161145963, -0.0136123747, -0.0139358556, -0.0124397548, -0.0176844317, -0.0181054324, -0.0223344751, -0.0231241491, -0.0207479894, -0.0221632197, -0.0167663172, -0.0193755720, -0.0153843854, -0.0162668228, -0.0150204692, -0.0154248206, -0.0175417196, -0.0197466239, -0.0212474819, -0.0194540638, -0.0211214200, -0.0185074061, -0.0217398405, -0.0184859987, -0.0200272929, -0.0222464688, -0.0218040608, -0.0195896421, -0.0201057848, -0.0151726957, -0.0172229949, -0.0135885887, -0.0174656063, -0.0146494173, -0.0137146516, -0.0159433428, -0.0101135448, -0.0116857588, -0.0067383987, -0.0109151118, -0.0051519140, -0.0094927466, -0.0052018631, -0.0055752937, -0.0084533254, -0.0030064725, -0.0054397169, 0.0015008576, -0.0011202915, 0.0031943768, 0.0019052092, 0.0001474694, -0.0012463541, -0.0035321293, -0.0042885044, -0.0049378453, -0.0039983229, -0.0049164388, -0.0023595099, -0.0064101606, -0.0007539967, -0.0047047487, -0.0022310689, -0.0038080397, -0.0033680103, -0.0005232784, 0.0006612336, -0.0000356781, 0.0007849176, -0.0004971145, -0.0027234263, -0.0019551585, -0.0020003507, -0.0014318801, -0.0026187706, -0.0000285425, -0.0011631052, -0.0001094128, -0.0042409338, -0.0028661387, -0.0041553061, -0.0052922475, -0.0041790917, -0.0084818676, -0.0051875920, -0.0082107140, -0.0069619813, -0.0045549008, -0.0032086482, -0.0023357247, -0.0040601650, -0.0011274271, -0.0024903296, 0.0015317786, -0.0015769709, 0.0018671525, -0.0028494888, 0.0009252514, -0.0014033376, 0.0004899789, 0.0018505028, 0.0014461513, 0.0026140136, 0.0004876003, 0.0038413394, 0.0006303127, 0.0010869920, 0.0001427123, -0.0003924588, 0.0000665991, -0.0001355767, 0.0040744361, 0.0059463456, 0.0051067215, 0.0067835911, 0.0051661851, 0.0043669962, 0.0044026743, 0.0054920451, 0.0082083354, 0.0087078288, 0.0105226533, 0.0074828812, 0.0106225517, 0.0094404183, 0.0071546431, 0.0116215376, 0.0114550404, 0.0137336804, 0.0112076728, 0.0134363631, 0.0118284710, 0.0113717914, 0.0133412210, 0.0150180906, 0.0149776554, 0.0145614110, 0.0154628772, 0.0146066034, 0.0178723373, 0.0175012853, 0.0176915675, 0.0189402997, 0.0180483479, 0.0202817954, 0.0181315970, 0.0184384286, 0.0183623154, 0.0191638824, 0.0166164692, 0.0197727885, 0.0180221852, 0.0187405031, 0.0157054886, 0.0187571533, 0.0156341325, 0.0135100977, 0.0119093414, 0.0134054413, 0.0138478503, 0.0108675417, 0.0117047867, 0.0105773592, 0.0095926449, 0.0063792397, 0.0083462903, 0.0071023153, 0.0107938070, 0.0076018083, 0.0076303510, 0.0111053949, 0.0100992732, 0.0132127805, 0.0069976598, 0.0120996246, 0.0038817744, 0.0083343983, 0.0068811113, 0.0077944701, 0.0079704821, 0.0055871862, 0.0065719010, 0.0032134051, 0.0053945249, -0.0023476172, 0.0017077905, 0.0034274736, 0.0016340557, 0.0024831940, 0.0022881539, 0.0045620366, 0.0038032827, 0.0030920997, 0.0027614830, 0.0009537939, 0.0036819773, -0.0000332995, 0.0028899240, 0.0028613815, 0.0013248458, 0.0030207436, 0.0012820321, 0.0041315211, 0.0055895648, 0.0033156823, 0.0071308576, 0.0038770174, 0.0033727672, 0.0006350697, 0.0009633080, 0.0021335487, 0.0003282383, 0.0011631052, 0.0006255556, 0.0008990875, -0.0034512591, -0.0034869371, -0.0042290408, -0.0025521715, -0.0037961472, 0.0001950401, -0.0000237854, 0.0002616392, -0.0009609294, -0.0027305619, 0.0014865864, -0.0019385087, 0.0009942290, 0.0025141148, 0.0024736798, 0.0029565231, 0.0013819308, 0.0007563751, 0.0004233798, -0.0012915463, -0.0007135615, 0.0021549556, 0.0035820787, 0.0036558134, 0.0051138573, 0.0046833418, 0.0027686185, 0.0025854711, 0.0029684159, 0.0051947278, 0.0067693200, 0.0060581369, 0.0088719474, 0.0079015037, 0.0071356148, 0.0049235742, 0.0063435617, 0.0073401690, 0.0056157289, 0.0075352094, 0.0095783733, 0.0067146136, 0.0083510475, 0.0060486230, 0.0066408790, 0.0065219519, 0.0038199325, 0.0072664344, 0.0044217026, 0.0033037898, 0.0046666921, 0.0049140602, 0.0034155811, 0.0039864304, 0.0038817744, 0.0073140054, 0.0076755430, 0.0058963965, 0.0075256950, 0.0050972076, 0.0065314663, 0.0056204861, 0.0057774694, 0.0048760036, 0.0056442712, 0.0043432107, 0.0038770174, 0.0019052092, 0.0024237304, 0.0017767681, 0.0022738825, 0.0029826870, 0.0030825855, 0.0041291425, 0.0061271144, 0.0042599621, 0.0045073302, 0.0059059104, 0.0049521169, 0.0085104099, 0.0083605619, 0.0084557040, 0.0079871314, 0.0071831858, 0.0078467978, 0.0060652727, 0.0086007947, 0.0080917869, 0.0083867256, 0.0050781793, 0.0073758471, 0.0046690707, 0.0062864767, 0.0070690159, 0.0087149646, 0.0058868821, 0.0082939630, 0.0076803002, 0.0093761981, 0.0111006377, 0.0086198226, 0.0117999287, 0.0092073213, 0.0128869200, 0.0098447697, 0.0102110645, 0.0109174903, 0.0089171398, 0.0098281205, 0.0061366288, 0.0091573726, 0.0066599073, 0.0088362694, 0.0036748417, 0.0053493325, 0.0025022223, -0.0006041487, 0.0009490368, -0.0004543008, 0.0038460963, 0.0013510097, 0.0019218589, 0.0021026279, 0.0031991340, 0.0032443262, 0.0024189735, 0.0063506970, 0.0050329869, 0.0066004437, 0.0053303041, 0.0076137008, 0.0050425013, 0.0066170935, 0.0043170471, 0.0070928009, 0.0058131474, 0.0062722056, 0.0058012549, 0.0010679637, 0.0040482720, 0.0004305154, 0.0015460498, 0.0010465569, 0.0007777820, -0.0002973173, 0.0002759105, -0.0011821336, -0.0022881539, -0.0027828899, -0.0032181623, -0.0024641657, -0.0009157372, -0.0005494424, -0.0005327926, -0.0007444825, -0.0007825391, -0.0014390156, -0.0007777820, -0.0034155811, -0.0012725180, -0.0074686101, -0.0041719563, -0.0068787327, -0.0078182556, -0.0078896116, -0.0096640009, -0.0104489187, -0.0131223956, -0.0114812041, -0.0167996157, -0.0107700210, -0.0154105490, -0.0092501352, -0.0113765486, -0.0113979550, -0.0098566627, -0.0119664259, -0.0091740219, -0.0116857588, -0.0072141066, -0.0086840428, -0.0096188085, -0.0085841445, -0.0098019559, -0.0083153695, -0.0054658810, -0.0078325262, -0.0056418926, -0.0076898141, -0.0067502917, -0.0058226618, -0.0076874355, -0.0034583947, -0.0071237222, -0.0039341021, -0.0042528263, -0.0048878961, -0.0054159318, -0.0085556023, -0.0076565146, -0.0049116816, -0.0047879973, -0.0016602197, -0.0032657331, -0.0005446853, -0.0029279806, -0.0027424546, -0.0014152302, -0.0039840518, -0.0022762611, -0.0020883565, -0.0009395226, -0.0001712548, 0.0002521251, -0.0003995944, -0.0044193240, -0.0017196832, -0.0024903296, -0.0007516181, -0.0014842079, 0.0014580439, 0.0006588551, 0.0016625982, 0.0039531305, 0.0020645713, 0.0054991804, 0.0071760500, 0.0058702324, 0.0082178498, 0.0080037815, 0.0091312081, 0.0111791296, 0.0066385004, 0.0103323702, 0.0060843010, 0.0069905240, 0.0069714957, 0.0082321214, 0.0099137472, 0.0077254921, 0.0114050908, 0.0096045379, 0.0106225517, 0.0068763541, 0.0067526703, 0.0086483648, 0.0074995314, 0.0091407225, 0.0099755898, 0.0065386016, 0.0048522181, 0.0034655302, 0.0049307100, 0.0046500424, 0.0049544950, 0.0088410266, 0.0043884031, 0.0084128901, 0.0016483270, 0.0079538319, 0.0039150738, 0.0043551037, 0.0068002408, 0.0053612255, 0.0085199242, 0.0051542926, 0.0098947193, 0.0083748335, 0.0092096999, 0.0137027586, 0.0112290792, 0.0148373218, 0.0109674400, 0.0137812505, 0.0109603042, 0.0130867176, 0.0132056447, 0.0111386944, 0.0129130846, 0.0115977526, 0.0104370257, 0.0111315595, 0.0097115720, 0.0087197209, 0.0123517495, 0.0100374315, 0.0112076728, 0.0117143011, 0.0119093414, 0.0145043265, 0.0129440054, 0.0165926833, 0.0168638360, 0.0168424286, 0.0160028059, 0.0140309976, 0.0113955764, 0.0104798395, 0.0090955300, 0.0067574270, 0.0065528727, 0.0070761512, 0.0056656781, 0.0060034306, 0.0042861258, 0.0066170935, 0.0038675033, 0.0045691719, 0.0039888085, 0.0031682129, 0.0046238783, 0.0044359737, 0.0068240263, 0.0062983693, 0.0065837940, 0.0074281748, 0.0083225053, 0.0069738743, 0.0097472500, 0.0099565610, 0.0136504313, 0.0107248295, 0.0110078752, 0.0113931987, 0.0080561088, 0.0117190583, 0.0070095523, 0.0125158681, 0.0088814618, 0.0082035782, 0.0112076728, 0.0063150190, 0.0076470007, 0.0061818208, 0.0058036335, 0.0101278163, 0.0088457838, 0.0114122266, 0.0117166797, 0.0132484585, 0.0128845414, 0.0098590413, 0.0153082721, 0.0128417285, 0.0169565994, 0.0188094806, 0.0198893379, 0.0209335145, 0.0181292184, 0.0209382717, 0.0210976340, 0.0214187372, 0.0230432786, 0.0226080064, 0.0206837691, 0.0210048724, 0.0169328135, 0.0203816947, 0.0167877227, 0.0210952554, 0.0204292648, 0.0199321508, 0.0203222316, 0.0177486520, 0.0217493530, 0.0163952634, 0.0196467265, 0.0151417749, 0.0173894931, 0.0170065481, 0.0140761891, 0.0196395908, 0.0162810944, 0.0185145419, 0.0163215287, 0.0159861557, 0.0142498231, 0.0135410186, 0.0158125218, 0.0102729071, 0.0152678369, 0.0097258426, 0.0089266542, 0.0047404268, 0.0009157372, 0.0030421505, 0.0046096072, 0.0052732192, 0.0064981664, 0.0053564683, 0.0037866330, 0.0015912422, -0.0025022223, 0.0021335487, 0.0006112843, 0.0004352725, 0.0017244403, -0.0002093114, -0.0003211027, 0.0001950401, 0.0017601183, 0.0013533883, 0.0000214068, -0.0022263117, -0.0009989861, -0.0028423532, -0.0043432107, -0.0046333927, -0.0039126957, -0.0053445753, -0.0061223577, -0.0060367300, -0.0070595015, -0.0057275202, -0.0047951331, -0.0021834981, -0.0022001478, -0.0015270215, -0.0051067215, -0.0026877483, -0.0053873891, -0.0025355218, -0.0041671991, -0.0023000466, -0.0034631516, -0.0026639628, -0.0007397254, 0.0008134601, 0.0046452852, 0.0007421040, -0.0000737347, -0.0033180609, -0.0036106212, -0.0017815252, -0.0023785383, -0.0035392649, -0.0016697339, -0.0053850105, -0.0043551037, -0.0081964433, -0.0056347572, -0.0067954836, -0.0053612255, -0.0034702874, -0.0081512509, -0.0023832954, -0.0067407773, -0.0046714493, -0.0036391634, -0.0035915929, -0.0052042417, -0.0025426573, -0.0048236758, -0.0010299070, -0.0029374948, -0.0008277313, 0.0012011619, -0.0028542459, -0.0027709971, -0.0081679001, -0.0035844571, -0.0062341490, -0.0055562654, -0.0029850656, -0.0064030252, -0.0002093114, -0.0074757459, -0.0042956402, -0.0055943220, -0.0051804562, -0.0064125392, -0.0047285343, -0.0042789904, -0.0064410814, -0.0039674020, -0.0087863207, -0.0059059104, -0.0110839885, -0.0109460335, -0.0104417829, -0.0113147069, -0.0098828264, -0.0105297891, -0.0131128812, -0.0101373298, -0.0133792777, -0.0114003336, -0.0076921927, -0.0089789815, -0.0076969499, -0.0121400589, -0.0125491675, -0.0148087796, -0.0160361044, -0.0140286190, -0.0130343894, -0.0129511412, -0.0102396077, -0.0127013940, -0.0098162275, -0.0127751287, -0.0126562025, -0.0116429450, -0.0105702244, -0.0104893539, -0.0095022600, -0.0095664812, -0.0136385383, -0.0144781629, -0.0137622226, -0.0138526065, -0.0142997717, -0.0116453236, -0.0093690623, -0.0103632910, -0.0111767510, -0.0140666757, -0.0122899069, -0.0128274569, -0.0138407145, -0.0102895563, -0.0112552429, -0.0105202748, -0.0131033678, -0.0110506890, -0.0147945080, -0.0120187541, -0.0149776554, -0.0122209294, -0.0159552339, -0.0150656616, -0.0166664179, -0.0190949049, -0.0145923318, -0.0185002703, -0.0139691550, -0.0154914195, -0.0135648036, -0.0173276514, -0.0204364005, -0.0212974325, -0.0220989995, -0.0194017366, -0.0180721339, -0.0161574110, -0.0153677361, -0.0155294761, -0.0155699113, -0.0166093335, -0.0141427889, -0.0159433428, -0.0122946640, -0.0139429914, -0.0122447154, -0.0137812505, -0.0156888384, -0.0121852513, -0.0147136375, -0.0140024545, -0.0148016438, -0.0133293280, -0.0134292273, -0.0122708790, -0.0093666837, -0.0105369249, -0.0106035238, -0.0126752304, -0.0127370721, -0.0119830761, -0.0119069628, -0.0047808620, -0.0048783822, -0.0032681115, -0.0039840518, -0.0039911871, -0.0072925985, -0.0062888553, -0.0064220536, -0.0049354667, -0.0018053106, -0.0070071737, -0.0020788424, -0.0066289860, -0.0065243305, -0.0069762529, -0.0058274190, -0.0048308112, -0.0076565146, -0.0048094043, -0.0048260540, -0.0030350147, -0.0033632531, -0.0008895733, -0.0037985255, -0.0027971610, -0.0037105198, -0.0017268187, -0.0013676595, 0.0013629025, 0.0014889650, 0.0016602197, 0.0026187706, -0.0004780862, -0.0022382045, 0.0004091086, -0.0030231222, -0.0007611322, -0.0016102704, 0.0002140684, 0.0041053570, 0.0009347656, 0.0053231688, 0.0031444277, 0.0039245882, 0.0028447318, 0.0027091552, 0.0039888085, 0.0009537939, 0.0032443262, -0.0011868906, -0.0005399282, -0.0023166963, -0.0047404268, -0.0014080947, -0.0027591044, -0.0023333461, -0.0030540430, -0.0037961472, -0.0045739291, -0.0063411831, -0.0046714493, -0.0037628475, -0.0004876003, -0.0001474694, 0.0000499493, 0.0000047571, -0.0014794508, -0.0006136629, 0.0021050065, 0.0030469075, 0.0065053022, 0.0052399198, 0.0056442712, 0.0031777271, 0.0046714493, 0.0017196832, 0.0012844107, 0.0043265610, 0.0021620912, 0.0014770722, 0.0031658344, 0.0006945332, 0.0032942756, 0.0025212506, 0.0015412928, 0.0064482172, 0.0014199873, 0.0077254921, 0.0054611238, 0.0064172964, 0.0083201267, 0.0039103171, 0.0054730168, 0.0033394678, 0.0023809168, 0.0029707942, 0.0011155345, 0.0021763626, -0.0010370427, 0.0001474694, -0.0013843093, -0.0041243853, -0.0026877483, -0.0039293454, -0.0033061681, -0.0072474061, -0.0070452304, -0.0070999367, -0.0089290328, -0.0046238783, -0.0087530212, -0.0074043898, -0.0091526154, -0.0108152134, -0.0098043345, -0.0103513990, -0.0107414788, -0.0094737178, -0.0120021040, -0.0089575751, -0.0125586819, -0.0095688598, -0.0100897597, -0.0101135448, -0.0098328777, -0.0106344447, -0.0096901646, -0.0089266542, -0.0070832870, -0.0084081329, -0.0066123363, -0.0103252344, -0.0104394043, -0.0102633927, -0.0109079769, -0.0099898605, -0.0102015510, -0.0060676513, -0.0053160330, -0.0062246346, -0.0046072286, -0.0023690241, -0.0022619900, -0.0024427588, -0.0037747403, -0.0033037898, -0.0020027293, -0.0032562190, -0.0026044995, -0.0006540980, -0.0018219603, -0.0001664977, -0.0005494424, 0.0014675581, 0.0059320745, 0.0035487791, 0.0060914364, 0.0048498395, 0.0088101057, 0.0081536295, 0.0051614279, 0.0101611158, 0.0079799956, 0.0120139970, 0.0102443639, 0.0124849472, 0.0121852513, 0.0127513437, 0.0119830761, 0.0122994212, 0.0104774609, 0.0079443175, 0.0053207902, 0.0073401690, 0.0059867809, 0.0079990244, 0.0089337900, 0.0096973004, 0.0096283229, 0.0099803470, 0.0091835363, 0.0140809463, 0.0129796835, 0.0142545803, 0.0144781629, 0.0107819140, 0.0111244237, 0.0066170935, 0.0098947193, 0.0096521080, 0.0096592437, 0.0110435532, 0.0093167340, 0.0087553989, 0.0054397169, 0.0044454881, 0.0007539967, 0.0012915463, -0.0016150274, 0.0011845120, -0.0009847148, 0.0015198860, -0.0011036418, -0.0005018716, -0.0024784368, -0.0029612801, -0.0040554078, -0.0038579891, -0.0034179594, -0.0040244865, 0.0010893706, -0.0054206885, -0.0003163456, -0.0049663880, -0.0005684706, -0.0016150274, 0.0004661935, 0.0009585509, 0.0008871948, 0.0025164934, -0.0010394212, 0.0036129996, 0.0010965061, 0.0040696790, 0.0034893157, 0.0031991340, 0.0085746301, 0.0040910859, 0.0059962948, 0.0051899706, 0.0058274190, 0.0054944232, 0.0054397169, 0.0055134515, 0.0077302493, 0.0050020660, 0.0053350613, 0.0099161258, 0.0057203844, 0.0065314663, 0.0028090538, 0.0065576299, 0.0044978159, 0.0033822814, 0.0043884031, 0.0037105198, 0.0061461427, 0.0037533334, 0.0070404732, 0.0076398649, 0.0092429994, 0.0076422435, 0.0081322221, 0.0099327760, 0.0043455893, 0.0086959358, 0.0053326827, 0.0096402159, 0.0048974105, 0.0075185597, 0.0059082890, 0.0067265062, 0.0071498859, 0.0028423532, 0.0064220536, 0.0059534814, 0.0052232700, 0.0015222644, 0.0018528813, -0.0004067300, -0.0005613350, 0.0034774230, 0.0017458471, 0.0067479131, 0.0041838489, 0.0080608660, 0.0055562654, 0.0053921463, 0.0065219519, 0.0034203380, 0.0086697722, 0.0027686185, 0.0064648669, 0.0017387115, 0.0046595563, 0.0041505494, 0.0025854711, 0.0043218043, 0.0024498943, 0.0011749979, 0.0000356781, -0.0018314745, -0.0052089989, -0.0077706845, -0.0078872330, -0.0077421418, -0.0067146136, -0.0100017535, -0.0038984243, -0.0077445204, -0.0070357164, -0.0066622859, -0.0097876852, -0.0079776170, -0.0099874819, -0.0093571693, -0.0116215376, -0.0098423911, -0.0108271064, -0.0125467898, -0.0110649597, -0.0125610605, -0.0084794890, -0.0077159782, -0.0057655768, -0.0090432027, -0.0089789815, -0.0095712384, -0.0075375880, -0.0062174993, -0.0039888085, -0.0015912422, -0.0034060669, -0.0028923026, -0.0050163371, -0.0026377989, -0.0018909379, 0.0014295015, 0.0005494424, 0.0013058175, -0.0006564765, 0.0021716054, 0.0019337516, 0.0024665443, 0.0009490368, 0.0039840518, 0.0029208451, 0.0016887622, 0.0009728221, 0.0027567258, 0.0012796536, 0.0032110268, 0.0035107224, 0.0037842544, 0.0055277231, 0.0040125940, 0.0050615296, 0.0032181623, 0.0066052009, 0.0057489271, 0.0087553989, 0.0097924424, 0.0095308032, 0.0084818676, 0.0089884959, 0.0087815635, 0.0079776170, 0.0098067131, 0.0100017535, 0.0112600001, 0.0083510475, 0.0104346471, 0.0099518038, 0.0091859149, 0.0097924424, 0.0085889017, 0.0105107604, 0.0087744277, 0.0102229575, 0.0090527162, 0.0118593918, 0.0071522645, 0.0117594935, 0.0089147612, 0.0124183483, 0.0101111662, 0.0105345463, 0.0117071653, 0.0092572710, 0.0120972460, 0.0073996326, 0.0114241196, 0.0100850025, 0.0093310056, 0.0104227550, 0.0070333378, 0.0105393035, 0.0045905788, 0.0042456910, 0.0019028307, 0.0015365357, 0.0006588551, -0.0008277313, 0.0001807689, 0.0017839037, 0.0041410350, 0.0012939249, 0.0026782341, 0.0028613815, 0.0011868906, 0.0000713561, 0.0003520237, -0.0000190283, -0.0041362778, -0.0031016138, -0.0075138025, -0.0071261008, -0.0081536295, -0.0122114159, -0.0110316603, -0.0154842837, -0.0139715336, -0.0172824599, -0.0156674311, -0.0185573548, -0.0203246102, -0.0192447528, -0.0222012755, -0.0192114543, -0.0199630726, -0.0156650525, -0.0136575671, -0.0119022056, -0.0118141994, -0.0113694128, -0.0147112589, -0.0150918253, -0.0156650525, -0.0147992652, -0.0129321124, -0.0137217874, -0.0120687028, -0.0148967849, -0.0144519983, -0.0154533628, -0.0166426320, -0.0156531595, -0.0158743653, -0.0148349432, -0.0150014404, -0.0141475452, -0.0151322605, -0.0162430387, -0.0163786151, -0.0150085762, -0.0150157120, -0.0122423368, -0.0118213352, -0.0121376812, -0.0119735617, -0.0173823573, -0.0186239555, -0.0188499149, -0.0199773423, -0.0186501183, -0.0185430851, -0.0183956157, -0.0169851426, -0.0217636246, -0.0213949513, -0.0197275970, -0.0185954124, -0.0164785124, -0.0159599911, -0.0137122730, -0.0158386864, -0.0120710814, -0.0133554926, -0.0110221468, -0.0098233633, -0.0065457374, -0.0072997338, -0.0049449811, -0.0065314663, -0.0065409802, -0.0035797001, -0.0060747867, -0.0066289860, -0.0078253914, -0.0081774145, -0.0081607644, -0.0086126868, -0.0101420870, -0.0099042337, -0.0112338364, -0.0122090373, -0.0124992188, -0.0125277610, -0.0130843390, -0.0099922391, -0.0095545882, -0.0072164852, -0.0059677525, -0.0071546431, -0.0049687666, -0.0065600085, -0.0061366288, -0.0046833418, -0.0051423996, -0.0017720110, -0.0033109253, -0.0025093579, -0.0022429617, -0.0027733757, -0.0038722602, -0.0041196281, -0.0031539418, -0.0024713012, 0.0012154330, 0.0027924040, 0.0028399746, 0.0047713476, 0.0040791933, 0.0041767131, 0.0039697802, 0.0069025182, 0.0077611702, 0.0086840428, 0.0102610141, 0.0096544866, 0.0079681035, 0.0089623323, 0.0058916393, 0.0056894636, 0.0049069244, 0.0030873427, 0.0072997338, 0.0066813142, 0.0090217954, 0.0097401142, 0.0087720491, 0.0107034221, 0.0079229111, 0.0112504857, 0.0096616223, 0.0151941022, 0.0164975412, 0.0156103466, 0.0202056821, 0.0156222396, 0.0199773423, 0.0169613566, 0.0208145883, 0.0194088724, 0.0211023912, 0.0228553750, 0.0207099319, 0.0193398949, 0.0156222396, 0.0153106507, 0.0141927376, 0.0143568572, 0.0154034141, 0.0150513900, 0.0158149004, 0.0142736081, 0.0152725941, 0.0157411657, 0.0162620656, 0.0182243604, 0.0169066507, 0.0179865062, 0.0190164130, 0.0185311921, 0.0189950075, 0.0163191520, 0.0180673767, 0.0191662610, 0.0188356452, 0.0189165156, 0.0187024456, 0.0181173254, 0.0172753241, 0.0164689999, 0.0177224893, 0.0199369080, 0.0210976340, 0.0260069370, 0.0238258187, 0.0255669076, 0.0250150878, 0.0247558262, 0.0247153919, 0.0226008706, 0.0213759243, 0.0223868024, 0.0226032492, 0.0235736929, 0.0247034989, 0.0225104857, 0.0256335065, 0.0192875676, 0.0243633669, 0.0194064938, 0.0232858900, 0.0216256697, 0.0222131684, 0.0232026409, 0.0176796746, 0.0183575582, 0.0164475925, 0.0192090757, 0.0195444487, 0.0204744581, 0.0223844238, 0.0208978374, 0.0182671733, 0.0178580657, 0.0167139880, 0.0174537133, 0.0214234944, 0.0204245076, 0.0208764300, 0.0198274944, 0.0154771488, 0.0188308880, 0.0142640937, 0.0149633847, 0.0134292273, 0.0114217410, 0.0128869200, 0.0109936036, 0.0095878877, 0.0106629869, 0.0095974021, 0.0108056990, 0.0106273089, 0.0101278163, 0.0119022056, 0.0101397084, 0.0131057454, 0.0156008322, 0.0151703171, 0.0150109548, 0.0152155096, 0.0140975965, 0.0126823662, 0.0111719938, 0.0101730078, 0.0100350529, 0.0114883399, 0.0140048331, 0.0120021040, 0.0128441071, 0.0113123283, 0.0095712384, 0.0074995314, 0.0077968487, 0.0050234729, 0.0099684540, 0.0082035782, 0.0095426952, 0.0107509932, 0.0082416348, 0.0112647573, 0.0113955764, 0.0097187078, 0.0147350449, 0.0149610061, 0.0148135368, 0.0167734511, 0.0148634855, 0.0142331729, 0.0171207190, 0.0155770471, 0.0188903511, 0.0172063466, 0.0159552339, 0.0151536670, 0.0135005834, 0.0110173896, 0.0131295314, 0.0094998814, 0.0115620745, 0.0116881374, 0.0095974021, 0.0076850574, 0.0050924504, 0.0064601097, 0.0045382511, 0.0052732192, 0.0020122433, 0.0022691255, -0.0007682678, -0.0021692270, -0.0029018167, -0.0017886608, -0.0017696325, -0.0037533334, -0.0005399282, -0.0021739840, 0.0005946346, -0.0011440769, -0.0029969583, -0.0002188255, -0.0022025264, -0.0000665991, 0.0008681664, 0.0028471104, 0.0035939713, 0.0030825855, 0.0049592522, 0.0020526785, 0.0010085002, -0.0003520237, 0.0011250486, 0.0035273721, 0.0013629025, 0.0026425561, 0.0010394212, 0.0002259611, -0.0000951415, -0.0013177102, 0.0073235193, 0.0054611238, 0.0078444192, 0.0065481160, 0.0074376892, 0.0065528727, 0.0065790368, 0.0081845503, 0.0080632446, 0.0100968946, 0.0089789815, 0.0089266542, 0.0104061048, 0.0080275666, 0.0101325726, 0.0078396620, 0.0107652638, 0.0070404732, 0.0059915381, 0.0079585891, 0.0054111746, 0.0105940094, 0.0080347024, 0.0148230502, 0.0116619729, 0.0122518502, 0.0126609588, 0.0142117664, 0.0124159697, 0.0132032661, 0.0128393499, 0.0142522017, 0.0137883862, 0.0157887377, 0.0134934476, 0.0136076175, 0.0086103082, 0.0082630422, 0.0074257967, 0.0072188638, 0.0080727590, 0.0073354119, 0.0093619265, 0.0022929108, 0.0047903759, 0.0002521251, 0.0012487326, 0.0062079849, 0.0021763626, 0.0064743813, 0.0036748417, 0.0054539884, 0.0023642671, 0.0026354203, 0.0065219519, 0.0008229743, 0.0039008027, -0.0013557668, 0.0003187241, -0.0013914449, -0.0023285889, -0.0017957964, -0.0044906801, -0.0060914364, -0.0081869289, -0.0074709887, -0.0050115800, -0.0039602662, -0.0022667469, -0.0052589481, -0.0037200339, -0.0035535363, -0.0036011070, -0.0014723152, 0.0016625982, -0.0007159400, 0.0028399746, -0.0059249387, 0.0010965061, -0.0054087960, -0.0020717068, -0.0023856738, -0.0026996410, -0.0015793494, -0.0041457922, -0.0029493875, -0.0059059104, -0.0045453864, -0.0087577775, -0.0060985722, -0.0130843390, -0.0087530212, -0.0141998734, -0.0114835827, -0.0105678458, -0.0155033125, -0.0087102074, -0.0133721419, -0.0117095439, -0.0116881374, -0.0135743180, -0.0091668861, -0.0165332202, -0.0144829191, -0.0160337258, -0.0179555863, -0.0160051845, -0.0144734057, -0.0130367680, -0.0149800340, -0.0135243684, -0.0134530123, -0.0151584242, -0.0121424375, -0.0136099961, -0.0139501272, -0.0106320661, -0.0136528099, -0.0130510395, -0.0143497214, -0.0102966921, -0.0115929954, -0.0117404647, -0.0124920830, -0.0105107604, -0.0150347408, -0.0144591341, -0.0131652094, -0.0146327671, -0.0127513437, -0.0141213816, -0.0099399118, -0.0086531220, -0.0098994765, -0.0102514997, -0.0113099497, -0.0107081793, -0.0130439037, -0.0093785767, -0.0094998814, -0.0048212972, -0.0067027207, -0.0057465485, -0.0052518123, -0.0026829911, -0.0005874989, -0.0018053106, 0.0052256486, -0.0031325349, 0.0006493410, -0.0047142627, -0.0042004986, -0.0001902831, -0.0039864304, 0.0035868357, -0.0023904310, 0.0014580439, -0.0031468060, -0.0020717068, 0.0023999452, 0.0008443811, 0.0076208366, 0.0066670426, 0.0090836380, 0.0077992268, 0.0053136544, 0.0050686649, 0.0039745374, 0.0063483184, 0.0068811113, 0.0059725097, 0.0074400678, 0.0097520072, 0.0074305534, 0.0059701311, 0.0039745374, 0.0036106212, 0.0008610308, 0.0024118379, 0.0015079933, -0.0001997972, 0.0003591593, 0.0000761132, -0.0012178116, 0.0011702408, 0.0004305154, 0.0019837010, 0.0001046557, 0.0009847148, 0.0005756062, 0.0009633080, -0.0002045543, -0.0023904310, -0.0022881539, -0.0025830925, -0.0002283397, -0.0008800591, 0.0018838024, 0.0020526785, 0.0070071737, 0.0054302029, 0.0088291345, 0.0082345000, 0.0055919434, 0.0070095523, 0.0063173976, 0.0103823198, 0.0069167893, 0.0102277147, 0.0110602025, 0.0129654119, 0.0126966368, 0.0150585258, 0.0138478503, 0.0133150574, 0.0162359029, 0.0148706213, 0.0170446057, 0.0188404024, 0.0189379212, 0.0171611533, 0.0211666115, 0.0184408072, 0.0227911528, 0.0223582592, 0.0222797673, 0.0281856786, 0.0245940853, 0.0281690285, 0.0292132068, 0.0238924176, 0.0256929696, 0.0229647867, 0.0248105321, 0.0249128100, 0.0236878619, 0.0243895315, 0.0217112973, 0.0246487912, 0.0208003167, 0.0207551252, 0.0198655520, 0.0162454173, 0.0165213272, 0.0118641490, 0.0143949138, 0.0126300380, 0.0108960839, 0.0138121713, 0.0108651631, 0.0152321588, 0.0097876852, 0.0109817116, 0.0112909209, 0.0091764005, 0.0113337347, 0.0105535742, 0.0142783653, 0.0116072670, 0.0150775537, 0.0120211327, 0.0124611622, 0.0122970426, 0.0126799876, 0.0138668781, 0.0152012380, 0.0153891426, 0.0156769454, 0.0149181923, 0.0133864135, 0.0183218811, 0.0129582761, 0.0161050819, 0.0146256322, 0.0141285174, 0.0147968866, 0.0107176937, 0.0148325646, 0.0062460415, 0.0091502368, 0.0071736714, 0.0047903759, 0.0096806511, 0.0064743813, 0.0101444656, 0.0077421418, 0.0089551965, 0.0085698729, 0.0051400210, 0.0062864767, 0.0034441233, 0.0086412299, 0.0064315675, 0.0107367216, 0.0079966458, 0.0087791849, 0.0091383439, 0.0058773682, 0.0087482641, 0.0080370810, 0.0055396156, 0.0072830841, 0.0043931603, 0.0020336502, -0.0007920532, -0.0018314745, -0.0008729235, -0.0028138107, -0.0010965061, -0.0007468610, 0.0012011619, 0.0007397254, -0.0027115336, -0.0006398268, -0.0053088972, -0.0014271230, -0.0015198860, -0.0022833967, -0.0016126489, -0.0017957964, -0.0011274271, -0.0006992902, -0.0005423067, 0.0028637601, 0.0020407857, 0.0025664428, 0.0006636122, 0.0018314745, 0.0010536924, -0.0004852218, 0.0041077356, 0.0009490368, 0.0058274190, 0.0048807603, 0.0047142627, 0.0092001865, 0.0031016138, 0.0080965441, 0.0047665909, 0.0050496366, 0.0047832406, 0.0047475626, 0.0056371358, 0.0073639546, 0.0071641575, 0.0070904228, 0.0082511492, 0.0051376428, 0.0076184580, 0.0075304522, 0.0101801436, 0.0068906252, 0.0084509468, 0.0064339461, 0.0062151207, 0.0066313646, 0.0089742253, 0.0067907269, 0.0093405200, 0.0068406761, 0.0054991804, 0.0065124379, 0.0004019730, 0.0076874355, 0.0007088044, 0.0064125392, 0.0020241360, 0.0036129996, 0.0030564216, 0.0002045543, 0.0041671991, 0.0009133587, 0.0006445839, -0.0043479679, -0.0021811195, -0.0029684159, -0.0010727207, -0.0005256570, 0.0020669498, 0.0013296029, -0.0013462526, 0.0014604225, -0.0041148714, -0.0002925602, -0.0046262569, -0.0028375962, -0.0047570765, -0.0063744825, -0.0047761048, -0.0057608197, -0.0050496366, -0.0063649686, -0.0057346555, -0.0058416901, -0.0041243853, -0.0051209931, -0.0063364259, -0.0090931514, -0.0077706845, -0.0065148165, -0.0050068232, -0.0028756529, -0.0031515632, -0.0040720575, -0.0033442248, -0.0057180058, -0.0058963965, -0.0041053570, -0.0034108239, -0.0018481242, -0.0028590029, -0.0034845585, -0.0041981200, -0.0063126404, 0.0009894719, -0.0022215548, 0.0036248923, -0.0015793494, 0.0046643135, 0.0008919518, 0.0016958978, 0.0014532869, -0.0002996958, 0.0019908366, -0.0015175074, -0.0022929108, -0.0031515632, -0.0070904228, -0.0069025182, -0.0063126404, -0.0098281205, -0.0074828812, -0.0135719394, -0.0119402623, -0.0161859524, -0.0143521000, -0.0145899542, -0.0185407065, -0.0135814538, -0.0174751207, -0.0154533628, -0.0125991171, -0.0141213816, -0.0109460335, -0.0124040768, -0.0139667764, -0.0114597976, -0.0116048884, -0.0099303974, -0.0084152687, -0.0071023153, -0.0060961936, -0.0095688598, -0.0087696705, -0.0072925985, -0.0088909762, -0.0089694681, -0.0065695229, -0.0076279724, -0.0086983144, -0.0067526703, -0.0088957334, -0.0054968018, -0.0108722989, -0.0116619729, -0.0105773592, -0.0152844870, -0.0104298899, -0.0110935029, -0.0097543858, -0.0085032741, -0.0104037262, -0.0047190199, -0.0090788808, -0.0100588379, -0.0088695688, -0.0072830841, -0.0061247363, -0.0075827800, -0.0057203844, -0.0072450275, -0.0077064638, -0.0096045379, -0.0076065655, -0.0054206885, -0.0056799492, -0.0032585973, -0.0017291973, -0.0028946812, -0.0036462992, -0.0049021672, -0.0068620830, -0.0058131474, -0.0086388513, -0.0107034221, -0.0104179978, -0.0128012933, -0.0121686021, -0.0144210774, -0.0095664812, -0.0133150574, -0.0111910226, -0.0159647483, -0.0159647483, -0.0183599368, -0.0213640314, -0.0212974325, -0.0233786535, -0.0232573468, -0.0229219738, -0.0219753142, -0.0209858436, -0.0203388799, -0.0206290632, -0.0203317460, -0.0217778962, -0.0209501646, -0.0195777491, -0.0200653486, -0.0215685852, -0.0193946008, -0.0224224795, -0.0195206627, -0.0214948505, -0.0201866552, -0.0214710645, -0.0214282516, -0.0204839725, -0.0208169669, -0.0216542128, -0.0208478887, -0.0226413049, -0.0237045120, -0.0220989995, -0.0223487448, -0.0212260764, -0.0204911064, -0.0212046690, -0.0200653486, -0.0204601865, -0.0206171703, -0.0174893923, -0.0201676264, -0.0148301860, -0.0130581753, -0.0117832785, -0.0091288295, -0.0096425945, -0.0084271608, -0.0104584331, -0.0085603595, -0.0073806043, -0.0050853146, -0.0091978079, -0.0067027207, -0.0078705829, -0.0072450275, -0.0072997338, -0.0057037347, -0.0056323786, -0.0068953824, -0.0086697722, -0.0099375332, -0.0103276130, -0.0093976045, -0.0091454796, -0.0066218507, -0.0033941742, -0.0063459403, -0.0027805113, -0.0054135532, -0.0051328856, -0.0054706382, -0.0061057080, -0.0034583947, -0.0043003974, -0.0019099662, -0.0008491382, -0.0016269202, -0.0003829447, -0.0008895733, -0.0007896747, 0.0000880059, -0.0017577398, -0.0028019182, -0.0036772201, -0.0048331898, -0.0009086016, -0.0010536924, 0.0028042966, -0.0003187241, 0.0012059190, 0.0004543008, -0.0007539967, -0.0023357247, -0.0009086016, -0.0010679637, 0.0028970595, 0.0008467596, 0.0009799578, 0.0039031813, 0.0006017702, 0.0018790453, 0.0002735319, 0.0018314745, 0.0022049050, 0.0023880524, 0.0037557120, 0.0019551585, 0.0027258049, 0.0016982764, -0.0033680103, 0.0000261639, -0.0037771189, -0.0024332446, -0.0008039459, -0.0020336502, -0.0031991340, -0.0072521633, -0.0053992821, -0.0067122350, -0.0065766582, -0.0052066203, -0.0043027760, -0.0018362316, -0.0008158386, -0.0021335487, -0.0029731728, -0.0021145204, 0.0009561724, -0.0011631052, 0.0010679637, -0.0021834981, -0.0034441233, -0.0027234263, -0.0071617789, -0.0054420955, -0.0058036335, -0.0044312170, -0.0058369329, -0.0072141066, -0.0089504393, -0.0095641026, -0.0100992732, -0.0087530212, -0.0087411283, -0.0084771104, -0.0069905240, -0.0090122819, -0.0085912803, -0.0072545419, -0.0094166333, -0.0065243305, -0.0050520152, -0.0041220067, -0.0014628010, -0.0026473131, 0.0015959992, -0.0012392184, 0.0018029320, 0.0026520703, 0.0036129996, 0.0054111746, 0.0065600085, 0.0081441151, 0.0114907185, 0.0102443639, 0.0143687502, 0.0159314498, 0.0160123203, 0.0166021977, 0.0146494173, 0.0169066507, 0.0161027033, 0.0160884336, 0.0200296715, 0.0165903047, 0.0199844781, 0.0183599368, 0.0188546721, 0.0178628229, 0.0179175287, 0.0177177321, 0.0156484041, 0.0180388335, 0.0173776001, 0.0161383823, 0.0145756826, 0.0149086779, 0.0144139417, 0.0143830208, 0.0121543305, 0.0153891426, 0.0155675327, 0.0185811408, 0.0163001232, 0.0178366583, 0.0185454637, 0.0165284630, 0.0170184411, 0.0173014868, 0.0159790199, 0.0169328135, 0.0190877691, 0.0164856482, 0.0159195568, 0.0133887921, 0.0132056447, 0.0156008322, 0.0096568651, 0.0102348505, 0.0084937606, 0.0072973552, 0.0046000932, 0.0055824295, 0.0046904776, 0.0060724081, 0.0042670975, 0.0047428054, 0.0020407857, 0.0019361301, 0.0039483737, 0.0033466034, 0.0066813142, 0.0028970595, 0.0050353655, 0.0027353191, 0.0012082974, 0.0005589565, -0.0014152302, 0.0014818293, 0.0012082974, 0.0014889650, -0.0002259611, -0.0023666455, -0.0025616856, -0.0053588469, -0.0056418926, -0.0036605704, -0.0058583398, -0.0033846600, -0.0021168990, -0.0073044910, -0.0035178582, -0.0120924888, -0.0094071189, -0.0088457838, -0.0102681499, -0.0042290408, -0.0071855639, -0.0063126404, -0.0084557040, -0.0101587372, -0.0096211871, -0.0070214448, -0.0064434600, -0.0068858685, -0.0079681035, -0.0063863751, -0.0099375332, -0.0050377441, -0.0064387033, -0.0047665909, -0.0038460963, -0.0070880442, -0.0042766118, -0.0087316139, -0.0042100130, -0.0060795438, 0.0002735319, -0.0006017702, -0.0001902831, 0.0015412928, -0.0036962484, -0.0000713561, -0.0021145204, 0.0000404352, -0.0025212506, -0.0016507056, -0.0029327376, -0.0023333461, -0.0031016138, -0.0007302113, 0.0005993916, -0.0027662399, 0.0010727207, -0.0013890663, 0.0016602197, 0.0004043515, -0.0029898225, 0.0031753485, -0.0045810649, 0.0000166498, -0.0030183650, -0.0004328940, -0.0042052558, -0.0059487242, -0.0056918422, -0.0072830841, -0.0064054034, -0.0091169374, -0.0066646640, -0.0066361218, -0.0057061133, -0.0078111198, -0.0057489271, -0.0082701780, -0.0079371827, -0.0086721508, -0.0059748883, -0.0071784286, -0.0070380946, -0.0068620830, -0.0070928009, -0.0099518038, -0.0058393115, -0.0065671443, -0.0035892143, -0.0065386016, -0.0064244317, -0.0080656232, -0.0100588379, -0.0067383987, -0.0090384455, -0.0079966458, -0.0083629405, -0.0081512509, -0.0083962400, -0.0082844486, -0.0079348041, -0.0061318716, -0.0095141530, -0.0082226070, -0.0087363711, -0.0119854547, -0.0114146052, -0.0068240263, -0.0054896665, -0.0041267639, -0.0029826870, -0.0036153782, -0.0036344065, -0.0036629490, -0.0026306633, -0.0019266160, -0.0037937686, -0.0024213518, -0.0040720575, -0.0036605704, -0.0037152767, -0.0035868357, -0.0057941191, -0.0051043429, -0.0078586908, -0.0116524594, -0.0078230128, -0.0129083274, -0.0105892522, -0.0138882846, -0.0138383359, -0.0144662699, -0.0156579167, -0.0154771488, -0.0141689526, -0.0150109548, -0.0112837851, -0.0125800893, -0.0115478029, -0.0147897508, -0.0191948041, -0.0180602409, -0.0205600839, -0.0188213736, -0.0180364549, -0.0187904518, -0.0161288679, -0.0217993036, -0.0209168661, -0.0238186829, -0.0254289526, -0.0222512260, -0.0225961134, -0.0196324550, -0.0225794632, -0.0204649437, -0.0195943974, -0.0211999118, -0.0181220826, -0.0183599368, -0.0187309887, -0.0184669718, -0.0185430851, -0.0175203122, -0.0177105963, -0.0188356452, -0.0189545713, -0.0204245076, -0.0188499149, -0.0198917147, -0.0173181370, -0.0147231519, -0.0121590877, -0.0146922311, -0.0122019015, -0.0168733504, -0.0162382815, -0.0186739042, -0.0155366119, -0.0134982048, -0.0150609044, -0.0123089356, -0.0142426873, -0.0127156656, -0.0161455180, -0.0127132870, -0.0161098391, -0.0130962320, -0.0125396540, -0.0143188005, -0.0111981584, -0.0117951715, -0.0119592901, -0.0122209294, -0.0116928937, -0.0131866159, -0.0117761428, -0.0132770007, -0.0108175920, -0.0084247822, -0.0096021593, -0.0085889017, -0.0093619265, -0.0075994297, -0.0122114159, -0.0109293833, -0.0083748335, -0.0073687118, -0.0060034306, -0.0079371827, -0.0072331349, -0.0097139506, -0.0089575751, -0.0094665820, -0.0051328856, -0.0076755430, -0.0093571693, -0.0061723068, -0.0064482172, -0.0049140602, -0.0077944701, -0.0062198774, -0.0088885976, -0.0104727037, -0.0109721972, -0.0106915291, -0.0095902663, -0.0108247278, -0.0113694128, -0.0121567091, -0.0124254841, -0.0121614663, -0.0106249303, -0.0084533254, -0.0096568651, -0.0108651631, -0.0103395060, -0.0100041321, -0.0111910226, -0.0111862654, -0.0127656152, -0.0124064554, -0.0120425392, -0.0120354034, -0.0094594471, -0.0129773049, -0.0095331818, -0.0096544866, -0.0109127332, -0.0125705749, -0.0125301396, -0.0078753401, -0.0126014957, -0.0076707858, -0.0182267390, -0.0180102922, -0.0195729919, -0.0190758761, -0.0196633767, -0.0194469281, -0.0192328598, -0.0167330168 };
/* TODO remove ===
 *  with yy[] in pressure:
 *  - SLOW / Z: _lEqPeriodDb = 53.97
 *  - FAST / Z: _lEqPeriodDb = 53.97
 *  - IMPULSE / Z: _lEqPeriodDb = 52.57
 */

static float getSamplesWeightedPower(float samplesPower, int samplesSize) {
  float totPwr = 0;
  float totWeightedPwr = 0;
  int freqBandIdx = 0;
  
  for (int i = 0; i < SNDEV_FREQ_BANDS; i++) {
    _freqBandPow[i] = 0;
  }

  kiss_fftr(_fftCfg , _samplesBuff, _fftOut);

  float maxFreq = -1;
  float maxPwr = -1;

  for (int i = 0; i < samplesSize / 2 + 1; i++) {
    float freq = i / _samplesTimeSec;
    float freqPwr = (_fftOut[i].r * _fftOut[i].r) + (_fftOut[i].i * _fftOut[i].i);

    if (freqPwr > maxPwr) {
      maxPwr = freqPwr;
      maxFreq = freq;
    }
    
    if (freq <= SNDEV_SAMPLING_FREQ_HZ / 2) {
      if (freq > _weightingTable[freqBandIdx][SNDEV_FREQ_WEIGHTING_FREQ]) {
        freqBandIdx++;
      }
      _freqBandPow[freqBandIdx] += freqPwr;
      totPwr += freqPwr;
    }
  }

  Serial.println(" === max fr ==="); // TODO remove
  Serial.println(maxFreq); // TODO remove
  Serial.println(maxPwr); // TODO remove

  for (int i = 0; i < SNDEV_FREQ_BANDS; i++) {
    float freqBandWeight = _freqBandPow[i] / totPwr;
    float freqBandWeightedPow = freqBandWeight * (samplesPower / samplesSize);
    _lEqBand[i] = 10 * log10(freqBandWeightedPow) + _weightingTable[i][_freqW];
    totWeightedPwr += pow(10, _lEqBand[i] / 10);
  }

  return totWeightedPwr;
}

static void processSamples() {  
  float samplesPower = 0;
  for (int i = 0; i < _samplesBuffMax; i++) {
    float pressure = _samplesBuff[i] / _refOnePa;
    samplesPower += pressure * pressure / _refPZ2;
    /* Apply Hann window function to decrease spectral leakage */
    _samplesBuff[i] = pressure * _windowFun[i];
  }

  _periodPowerCnt += _samplesBuffMax;
  _periodPower += getSamplesWeightedPower(samplesPower, _samplesBuffMax);
  
  if (_periodPowerCnt >= _periodSampleSize) {
    _lEqPeriodDb = 10 * log10(_periodPower / _periodRounds);
    _periodPowerCnt = 0;
    _periodPower = 0;

    Serial.println(" === _lEqPeriodDb ==="); // TODO remove
    Serial.println(_lEqPeriodDb); // TODO remove
    Serial.println(" ===================="); // TODO remove
  }
}

void soundEvalProcess(int32_t sample) {
  _samplesBuff[_samplesBuffIdx] = sample;
  if (++_samplesBuffIdx >= _samplesBuffMax) {
    processSamples();
    _samplesBuffIdx = 0;
  }
}
